-0.13861400935853696 0.5578091236573867 0.08548828223025894 -0.08171758631208219 0.4976011830001503 -0.6763302705400245 0.22517680928172965 0.8099495443655165 1.188692139827815 0.9899596434130605 
0.9760912659723511 0.04909270453920824 -0.1841057036936791 -0.1699162790010509 0.19043403996937552 -2.2358590472075264 -0.2735916869080927 0.9585223586923756 0.8433114278207955 5.0527072668256094 
0.6549892943860832 17.176139081173847 -8.707807245347256 5.373215686265698 0.36060119566586885 2.3197439384299563 10.802316559911612 -7.1060384392487315 -5.072442496835456 -2.4996399351339273 
-0.24122419676025253 0.631244621032191 -0.06966692405485878 -0.07419939055964324 0.033250064759849964 -0.5656832499615403 0.37552016637029445 0.8447084331661281 1.081071837219465 1.2553393666865023 
-0.08123123880854964 -0.7941026150341289 1.9105535197022927 0.19433787712646922 2.8968708341551634 -1.3010936171560668 -0.47409669610160976 -1.3698220008539597 2.223469970623612 0.21266799321598895 
-1.6474353480433097 -6.583467383146511 15.760895408331923 2.191821354588029 5.531760497034386 -4.4240953196562725 -8.557194857833771 -2.6535880087006003 6.681664438771536 0.3838134618380764 
-0.07751916886278805 -1.6760557843160708 1.6497379273284087 -0.21802573847364654 3.1851450601368794 -0.4458764665269441 -0.3150147902412389 -1.6643897128009266 1.9577437000358302 0.510812790518482 
-0.9890174867144071 9.442276186490409 5.057525273694841 -1.9146104092181073 -5.031580258339896 7.017732218918377 3.578923722007839 -4.1917064556567505 -3.941333346401228 -0.12859263678296995 
-0.08506756262798032 0.374493248626538 0.06155439504664034 0.06266654159790196 0.6454163392168487 -1.1717453637874726 0.3362036779514725 0.43231361559904574 0.9336296301673629 1.3225998571190654 
0.07883188410169067 1.0188485904143838 -0.5815039272861938 -0.026303303025170106 0.3796539454182624 -1.2881106818569013 0.4990408914266391 0.713353227288213 0.6677446851131749 0.9824163458183763 
-4.197962265488088 -5.749318150417955 0.687203897105923 10.229102897513622 -10.887836493907049 7.183165267819106 2.072059919416451 1.3072836852243332 -2.863080366881648 7.5370312966823105 
0.09730611489771512 0.5548265303590768 0.03909332170448845 0.08085452780846002 0.8074731613898678 -1.2588847485687598 0.35872617154008646 0.5773356831787425 0.9560408315816147 1.0980963628322895 
0.07764123863622988 0.18676421739642382 2.578916891607222 -0.5008791882161193 2.245498004336738 -1.6691573658235062 -0.8838597082954368 -0.36956380006418266 1.823439166160671 0.07683454865805026 
0.5911935394789357 0.2476526841095121 -0.4300654655842065 -0.4308181568640498 1.360326682850673 -2.088475793785059 0.11252691893153025 0.8009094789985253 0.8281476742075227 1.2381799013929227 
0.005402682634531159 0.3850978808945821 -0.15060022681681845 -0.06288399942337214 0.5244483754503272 -0.6783183559981814 0.2306212562521299 0.9064910609399001 1.1033802754595117 1.3276357711811273 
0.06089705097153566 1.381462517324999 -0.9782374053883464 -0.041522308008296614 -0.4109281107022197 -0.8871178153999282 0.5211020035818065 1.276007483897191 0.4321690328774324 1.3445621504221057 
-0.08177315422642953 -0.31296786891400685 3.5009584025481972 -1.7214858888632592 3.3133293445660708 -0.5378682698991845 -1.8780747447313104 -0.574256711879192 2.7266406862370793 -1.836434158381519 
-0.34755182388174 14.70388632304106 2.4606552609764565 10.186327976190995 12.75684483162605 -9.003053627854916 4.137911798033527 -8.816637766355216 7.854176322498605 -12.225433739674356 
-1.160385358324785 -4.71408531462478 4.185053213675419 -0.37657047414621664 9.627453058028086 6.6716288526838685 -2.484586610754669 -7.114103579485847 4.310849118396961 -1.2380095648344809 
0.939010330819092 12.796368822303112 -5.471255748508944 -7.147529680860033 -18.454833294103523 5.723269167504527 4.6260442829770945 9.839577667926683 -13.123072316940503 8.104823923363952 
0.6623264861132983 0.5918166833206663 -0.13894879667904764 -0.15335972593782315 0.13938543114749233 -2.196442420483991 -0.3197766589369557 1.0824636054112897 0.5479914585767007 2.706229270481036 
1.0710291012914968 0.2991063438908696 -0.7122935140870152 -0.20924560422957508 0.11164727143775777 -2.339693509977426 0.6356314872648531 0.7320376043604306 0.09645383962552799 4.364906837441236 
0.03004802381650907 1.3496749383003057 -0.6862677114379301 -0.0972579208442376 -0.48588893759798435 -0.4749939516677174 0.4516752721996348 1.1027496886213803 0.7416377990350207 1.339932570956061 
-0.14238224594803717 0.3424224953912551 0.20555958097198218 -0.2834170579638302 0.5090768405623242 -0.8596069109024641 0.16924052798617634 0.5852705217579375 0.9525157600896158 1.4797513543307725 
3.898970646173302 -11.460970918029615 0.9002485421504883 -17.76873470043844 7.916786735610317 5.459343293456042 -5.720961770649637 -0.4645104173792199 3.5312362821369137 -0.20608822208026634 
0.6705738701624652 1.1337951266710677 0.4495668052137763 1.4406478381201722 2.4382889107193253 -3.9338577469888847 0.5708563083235259 -0.3147240692300424 0.5545972423169191 1.2727998491408445 
0.11995013247310518 0.19361872688979825 -1.045064226118971 0.19817543703814627 0.5508111123047661 -1.113222189338493 1.4872157501918484 0.4687637782789622 -0.16669836933481855 1.7832933855605895 
0.8937121876781782 0.8485503369028237 -0.8905819391248079 -0.3814525030815021 -0.37526042026782125 -1.353361628342662 0.2020122372231015 1.3515702526293687 0.430751890958187 3.4803615670180785 
-0.16948683785053908 0.6084559524815386 -0.037464991055010846 -0.16501999652811863 0.5547877779209125 -0.7329547545375259 0.5624149097030732 0.5082326943880714 0.8979033814194189 1.0172241079718 
0.2909217167423717 -0.08955894550619799 0.6108862395714993 0.04976803232847478 0.6230193669979113 -1.703895233807964 -0.21977218557357095 0.5699299300946101 1.1508802957029869 2.3299080093004565 
0.3554049676549979 0.5026682286667148 0.6811901050946555 -0.2733141379354255 2.0741479158878198 -2.093457093688907 -0.24698170449183018 -0.12721891830967097 1.642655757560795 0.4433847174278202 
0.5511183462371819 -4.689802180955319 -1.3366058098312485 1.163085246742823 8.862265748125962 -4.537225975824374 0.798457691191664 -2.694680918777555 3.462429807446671 -0.671897162983727 
0.8280980882690202 -0.9998698880936935 -7.791498931753112 -5.330897394216203 0.3206883680576326 2.659953026997972 1.5187539564308496 4.173415045797151 -1.5827354349559728 6.183618453741419 
-0.060955511962239674 0.24300684119013302 -0.5832674096419398 0.013308682561496633 1.0803245077783918 -0.7651940024345607 0.6725055227741409 0.31450805483557254 0.7739648096873831 1.1992053290179028 
0.05921825953732964 -5.300661756762363 0.5559689187605626 2.1083644140148383 5.269908014878802 0.12059773399524218 1.1746311005025498 -4.122900956540685 1.1766209403229817 4.125511199420845 
0.49479424872075495 -0.8504883286408291 1.5749746985034072 1.3746717569978144 0.3939811481959536 -2.610549030004852 -0.12870988616760923 -0.4824153516420268 1.0241547611369295 5.876993056912364 
-0.3258850508226591 0.7010009184034899 0.33089127905453886 0.03288709577344884 0.44597222017467447 -0.5550226000958141 0.40425055916214747 0.47035987805531637 1.1260242094000286 0.9223764914453468 
0.17179918925071141 1.0783412728797925 0.5193731882853905 0.591950970522825 0.4341759980006401 -1.8216174632548765 0.5305009160560835 0.48187466383491234 0.573530964786903 1.3011632920283362 
-2.596386766411784 -5.832113418537354 8.009663848843283 10.727364649338051 14.81312756604507 -6.458907985546885 0.35122478684342406 -10.2339919901694 5.473590631064922 0.3022909863598985 
-4.79436113641319 -0.08292435939667445 0.16414164954749058 9.446695922872655 -6.297552710142706 6.033726786539567 9.434451344434326 -4.393521252069732 -1.1669947769578368 -9.262807523091675 
0.909285631176756 3.2530960005185565 -1.0861868308347176 0.594398517121796 0.3429390932216195 -2.9796768359929144 1.5077039542260398 0.11276919692549515 -1.0045903059106998 1.6288851282849874 
-0.44421591194169907 0.4135211115792885 0.16560880286252577 -0.14890670958106592 0.5960905713895527 -0.6981384823602862 0.2883009621038375 0.2942256837087285 1.1624516083337886 1.013189510583052 
0.6525240078947532 -3.7000271270433447 -2.599371177162175 -0.8143232818981169 10.152067506636932 -0.5237499751217544 0.5002280333369014 -2.944585377836468 2.4764886595537314 -0.7815100930041842 
-0.03615197558483963 0.63675943215781 -0.10489348203028298 -0.13832987956451304 0.6265888187321774 -1.1157281527430827 0.31617627165847084 0.673215627854368 0.8555806697396648 1.0576710962938725 
0.10921681831165704 0.3370609946693005 0.5209113181682218 -0.2243175682122619 1.2009808970598879 -1.3249888737564515 -0.13278544533086264 0.5385178668394826 1.3287523503916807 0.9256136775116444 
0.5507997182088025 1.0064577383683768 0.2476002945440151 0.03503510755712202 1.0609418648658122 -2.468300209209919 -0.27386869139043896 0.5216999472105067 0.8163915896903456 1.553424813323676 
-0.3141946262853988 0.3811486531205798 -0.00867666948218143 -0.04222961601726767 0.5322541134271014 -0.6072852290264609 0.43971408412899327 0.4473959614181314 1.2622172966923801 1.0796670829737676 
-0.16126945364868905 0.7057020638369569 0.16654358168075103 -0.008206225378349 0.9060395350904162 -0.47339124929436815 0.3787944145655551 0.5052182832306393 1.330636822971491 0.6705545718160084 
-0.028495000862826306 -0.0324841991779365 -0.28251696958501227 -0.3706265434322719 1.2565665590896065 -0.7833862987447517 0.32089867588640975 0.4153515083237056 1.0956475254896878 1.2692090154603157 
-0.009955316398257473 0.06349459015784761 0.2056359335387799 1.0015741646289003 1.19387544450679 -1.698576272268728 1.4365826709100404 -0.40175011891549595 -0.10213933972682908 2.063985582299003 
0.060985941114259035 0.5907527251288144 -1.299360765913518 -0.04922624767921295 0.17701059551456297 -0.14266722785205474 2.327444388559622 0.045938612911876474 -0.5805901281671625 1.273611834562146 
-0.290314007666984 0.002644037676622763 0.3967884245634139 0.536486985259184 0.645043176413965 -1.0132793985150585 0.6991443194957834 0.2258320605730267 0.638864166215089 1.6437054317802853 
0.4786403186289213 11.845638863539435 -7.173029495088978 3.5170956975660497 -0.9275005169328816 1.3445455635884715 8.60130831777761 -4.134604775357138 -4.458976887037064 -0.9342435563002954 
0.28653149026289393 -0.9364938096853858 1.9873533433711763 -1.4034117824538421 2.999604517567361 -2.234425201852047 -1.5554943707476228 0.13598043759526676 2.566047257250076 -0.5960344434011107 
0.44966253756297725 2.975163122788775 0.7991158049024004 1.0054940095380205 0.3341835995506024 -3.8786674797760847 -0.3716095017596385 1.1706252480499508 0.45588243681626067 0.5819216355423359 
-0.05613471552803834 -6.618686613920529 1.0441200929101628 9.530249661052807 3.155668606051078 -8.388550540635618 1.7238587358550197 -2.6767918854560615 1.3684316066041766 7.573236112799456 
0.2744063428167448 0.1350712113006297 0.5323077567734673 0.6438728757848635 0.5137085905836798 -1.5610402969630732 0.6130425892021704 0.30145779095692454 0.5390639924632036 2.531919248818734 
1.2521033456559048 -0.8461302925046402 -0.40024653034599583 0.28280060953654096 0.3686447053468021 -3.0805937208740675 -0.04925649981388226 0.640355538744017 1.056906979547503 9.747552509343079 
0.691467709403236 -0.7394522991026371 -1.3986160645602526 -0.016805714202049713 -0.3040274808942886 -1.975795953732668 0.9321305889339622 0.5069719410132203 0.2327299429467838 9.794813158065464 
0.6613482897057648 0.5088965129877208 -0.44945742602568095 -0.32471235756868766 0.7659310875187976 -1.6202460890955115 0.5339218612878579 0.5925222643850132 0.2306091663310433 2.299048507084861 
0.05054325299390208 -2.178573342161554 2.173783431148482 1.9798149031466048 2.7370933047127504 -3.318782267382566 0.08962732577964592 -1.624499170774402 1.567092150712491 2.723512185489213 
0.9901667440676145 -0.4604258344028535 0.7297739145572991 0.3608727713433717 0.4144017825011329 -2.8673224739931142 -0.21597016395033206 0.2864381748966851 0.898206811966397 6.571405991588096 
-0.1404044865139812 0.5803627457242825 0.02982023062729581 0.038884241714603425 0.7257134806397267 -0.6737396067930008 0.4982971954989555 0.6170906399030557 0.9442749733372183 1.0875772245432775 
-0.30088124535313043 -0.8608236548726177 0.1542450620327324 0.9218463945879508 1.201182676041826 -0.2712743813479263 1.0108633533532239 -0.8425680550043978 0.6580016599084786 3.326590382278323 
1.2688344637556175 5.2425641163867525 2.3985348179761745 1.6966570300306458 0.03157315605466072 -7.566420711003796 -0.29954280043862447 1.1108950618111422 0.12852443745472092 0.6765073849830536 
1.0363945046267045 3.3592525220799843 1.4490090256816177 1.8140840893861119 0.40768110574720323 -5.911907029644971 -0.47243629784165414 0.6164266023719144 0.17641304492094334 1.6855323016931263 
-0.21788174573591737 0.6502891841905415 -0.1785622265291935 -0.19357224596806255 0.295724043942501 -0.6053268334775274 0.36478490776713113 0.7180126837384511 1.1245452518046926 1.128262409762069 
0.28819042056801997 -4.734954051331434 -2.734090050705726 -3.2511745926418554 7.699317073239356 2.5641741574847137 0.9735859838527281 -1.0426317685682416 -0.6882767450127386 0.1996610814077895 
-0.4009322541043467 0.4253785066610804 -0.06467154674366332 -0.09594914832586343 0.26526016635743827 -0.295673438555125 0.559262607402969 0.6855170448656038 1.2900932219680956 0.9770439944581367 
0.4371568074333104 -1.4120247579237803 -1.8778096462896097 -0.49276737513987107 0.33159729171349006 -1.054147464839698 2.8777974838838127 0.11381985777603688 -0.6370097106878494 5.237783358599744 
0.9055491607085363 -0.4524491507924779 -7.190181046859687 -4.1397545296625395 0.5494871025377512 1.2437619229814891 1.609735159067949 3.4531864244695707 -1.1453212562187867 5.6147859680426295 
-0.09273684579790703 1.134322424882531 0.6640331140698775 0.20554293971449977 0.4509321131940251 -1.459350644688422 0.18712569220262787 0.3994890436866725 0.8820421962437484 0.8993614251253305 
0.15607043662797415 1.3404113780644558 -0.6443188447763392 0.01718033503472263 0.06582399461853468 -0.8950034533127333 0.45739086938220863 1.1114050045399029 0.7216763443667377 1.001651823162849 
0.7790475599215325 0.26287306840393465 -2.9636180815595394 -2.2559702652632785 1.9229382884330397 -0.552965023843645 1.0086085960655402 1.5415000724741577 -0.49798531130163426 1.6236493799800231 
0.6737612649494263 -0.5121231389239465 -0.36166175093149977 -2.3933533668576206 4.836456651907882 -1.7780332746112102 -0.08493396766881506 -0.31109914643296027 2.4533715568147842 -2.5288837317704496 
-1.278070792665857 -5.957413502860265 17.37821821630193 -1.1928247713664517 1.7234773127230811 1.7061919768988736 -10.236603482456502 -2.6524559431044405 6.050087110435212 0.573458785194488 
0.06527394784263729 -0.1261914227257246 4.472498924850484 -1.8823993963520114 4.525223879968539 -0.36588907285797106 -2.6960573576483062 -1.4642299209010101 4.001353309808437 -2.9053339112590786 
-0.0033035311891522257 -3.1475043614265323 -1.0912392694640578 -0.012392342384588789 4.055438057236494 0.45902919207376314 1.636755141143308 -1.7907946019272571 1.0508001882910074 1.9342738387223204 
0.07110109004815358 0.941407798125633 0.07399507917416201 0.16165834566190002 -0.06879551682981992 -1.5432842947603291 0.09336234017018737 0.8910539673464083 0.637864626279965 1.7355349556724506 
-0.437532856970293 -5.239204996620743 2.6170573249500584 2.2507550712116906 5.1007091344073805 2.6651245422207084 0.7342959757277319 -5.718385538700073 1.126533087475725 4.539242337088443 
-0.3595252307388672 0.1613144068672524 0.22671410296540978 -0.10840873670032367 0.9718606205322711 -0.32756717139761793 0.4919792650411403 0.2104887756376674 1.174997751917326 1.0331474778991754 
-0.7086510747326943 10.215162194486673 4.029859690807622 9.307596180464024 0.10851255834092914 0.15314045287037553 8.721405958463011 -12.262892935874326 -1.394479265415199 -0.8162333629444275 
1.8995980042206377 -3.998308945071546 -1.3864015254949356 -6.7094828943790965 15.76036578887538 7.258046426373773 -2.413543995560697 -7.916545598763597 5.262261645722431 -2.6792603660533882 
-1.0433484381673812 -3.5029222859127125 0.9416494641390304 2.6663925766204217 3.6772121363563257 1.9826480638631894 3.0494792057763687 -4.234021166283063 0.09549388752553804 4.191550644669589 
-0.253198566043007 2.414561468177764 -13.31499478638415 0.2936633363076705 0.5719460463068208 9.242148028230847 10.650177591026855 -0.7595967471546556 -5.432900057876039 -2.130013861435293 
0.4258147848665157 -1.0999218698588955 -7.081533071216367 -0.9799635557348151 0.4079918845014371 3.654324521260249 4.130863633028502 1.068061538663395 -1.8443714890144933 1.5332280584743943 
0.22968572216376318 -3.024982327876984 -0.32617446674532163 0.19377514887719513 6.222904969701986 0.4048054257925909 0.3494541573165125 -2.9550742101556824 2.2942695131986732 0.1259524779332993 
0.10160119010118136 -4.708770881791722 0.9161749365813833 2.1470622775346624 4.018944743409026 -2.0636801112029994 1.4282061538710003 -2.96911612773556 2.2153562450353954 2.1960232577008725 
2.012036565836647 1.670572821226154 -1.1109614352974235 -0.15476473324912834 0.5035469029829852 -5.288035470860053 0.329943751556557 1.7301500142628927 -1.058756180528418 3.937561257389629 
-0.2640891899842264 0.42917769847650866 0.2061401473460853 0.06580552005124524 0.6531446900213905 -0.6464236597176738 0.6157998681460383 0.46245838125250843 0.9259777541431878 1.095472306580264 

-1.0772420511637255 -0.013780541801584568 -0.07194030537005287 -0.3748305376483279 0.15722316353333143 0.060272857047104146 -0.25686353678771456 -0.1400461373501002 -0.45414614385951674 -0.12170666840622807 0.12051000890969712 -0.8741318041566462 0.14972901265724026 -0.2037038992416124 0.08466060058134577 0.0641239672117689 -0.024716290530012317 -0.0818445423527516 -0.17452559336890702 -0.11474657723070544 -0.05690156698851547 0.0427595981390916 -0.06068922871407786 0.13042450953116874 0.02714633493795197 0.21841233227262358 -0.04236632851628086 -0.2092755373677488 0.10455766146455962 -0.052016575477693866 0.14247813743545193 -0.19829836739234205 -0.21680824752046077 -0.3070227466259584 -0.030512272939983587 0.004935336235480902 -0.08596047137551059 -0.06658781115106233 -0.06456412794924396 -0.1795051701298927 -0.6704929419774462 -0.20579295051483099 -0.09400586535705824 -0.0999755000106121 -0.016716199188806638 -0.035436043763989976 0.07214617977871016 -0.025522491611803713 0.09873874524124769 0.07847660554174213 -0.19244546901144896 0.05603140805520084 -0.1405706774648973 -0.23864767656668548 -0.08749091071318629 -0.0223356818529653 -0.11350966849859122 -0.029170687097296893 0.07200832387815503 0.03438575047425162 -0.14183815542775513 -0.0605398518432744 -0.11801257036334363 0.0036254766008538193 -0.11015159524239337 -0.09458560762112288 -0.03086875975200562 0.1265784471571582 -0.3112599912583508 0.16508549175853235 -0.09616519671833403 -0.19185830905282666 0.14683584560150134 0.028915785610679343 0.04369410002459581 -0.14374139850615902 -0.030018957609503665 -0.050625798359743956 -0.17625450061270245 0.03742146119507541 0.032541258686191885 0.1225202248225418 -0.16707626807896545 0.07626730214397567 -0.03940866736986487 -0.34405460906381424 -0.09026088270237587 -0.03696718557689703 -0.17801931183634118 0.013211543165460648 -0.1377634974593173 
-2.1904099298221373 0.02903503987225578 0.08147929406791561 -0.5592259324891824 -0.049283900529309525 0.35293047482859 -0.1529484979734807 0.24579829150867288 -1.49928546966018 0.0790539940454662 -0.13864290603634108 -1.3342728388057885 0.16089459121581157 0.1573827947885653 0.1710028536509759 0.07648200395966917 -0.1919494141482145 0.3135149264000708 0.7403708942671333 0.036232032237024696 -2.495340322565317 -0.01791560825571254 -0.16580833939977885 -0.13231727948914726 0.027203540502086277 -0.2723947646446564 -0.05303855275833531 -0.21747101925915216 0.059031203612536234 -0.032981329898970575 0.18151502879411593 0.367373261243805 0.9228144957249212 -0.37127545668743944 0.08734545681249828 -0.06256332082026181 -0.08884133416268948 0.27675598163760423 -0.10933632407387546 -0.23141175603455746 -1.2104441448315908 -0.07910471564612663 0.2340767173884222 0.8621825920712393 0.013678285995578444 0.12980061284605082 0.07119631715662195 -0.026079871346516924 0.17164911430195112 -0.04119768145623955 -0.30201083247901994 -0.2536250708743947 0.07495475574356528 -0.7558961663554629 0.46668953803879587 0.12066780582715596 -0.0735688947023869 -0.03266672743735842 0.19853054227239228 -0.30635832288526477 -0.25864987361832203 0.0004442627365819659 0.027685285061211914 0.15368273527568602 -0.17196910081569536 -0.1763379555251589 0.027905592754108418 0.1390886398109197 0.08932477159107245 0.12638949179225642 -0.5012598730650244 -0.5066069642168276 -0.05538976456040072 0.0012047475908725381 -0.31075683329848647 0.676136404968877 -0.24759982921145487 0.5803081187407505 0.02151434058329777 -0.09919349482975735 0.15918283373248107 0.029915191542642418 -0.48585701551339733 0.1500226704967102 -0.4143601762595716 -0.6475045229533586 -0.4373595001596371 0.5163289698073416 0.09281294455526123 -0.24218608054004231 0.11224946930489596 
-1.2793138959067218 0.14504017306825567 0.08016615096284486 -0.512628116277596 -0.12526546177193865 -0.017195050484583776 0.028035433187363935 -0.08511412873405254 -0.6997628062113423 -0.13329667312638968 0.07149417971211325 -0.19644309665564336 -0.12358550813174497 -0.018666650256917695 -0.1563339587564711 0.1520993532415215 0.029975326044203228 -0.03975533698113109 -0.2676485139353992 0.017714379287909438 -0.4012388694277876 0.09759229325158165 0.04925199889749304 0.07289588132381387 -0.022550175792378294 -0.43462869222238487 -0.051621427753077244 -0.06499037558716102 -0.1010608983419827 -0.024193931487975866 -0.047591948113657544 -0.15514873317639866 -0.043347469664781854 -0.1806524022363103 -0.00946122904966473 -0.22705650382127615 0.04990637104331739 0.1116542034999023 -0.016239412470934248 -0.1384473779306526 -0.018511862784208494 -0.17553928777938305 0.03620884053032619 0.06870731569883794 0.1445013669281143 0.022629153853592213 -0.10199472739636165 0.023475100676483635 -0.13742986059082773 -0.11746257816216787 0.03979651144649738 -0.12759378047114853 -0.005268011586203182 -0.4408927500832791 0.14050414349296325 0.14802208062689307 -0.01777059886942061 0.036344274594070296 -0.17387707542979047 -0.1414897283251762 -0.15793059657755612 -0.029874991114249676 -0.1919124566829726 -0.0346523775057657 -0.12329582496835227 0.09634504556709515 0.02356891355947891 0.08605081332581957 -0.24885242404170438 0.0651564861680986 -0.19368226419816284 -0.12805475858957172 0.06780367454826998 0.1383508242518104 -0.1314928120873364 0.0668920827399049 -0.2585235515755915 0.0009942011105075962 0.013003924703443052 -0.12357437160368862 -0.1882715241018196 0.13599140722596875 -0.6307751690498923 -0.3846274934302637 -0.13706358927969722 -0.2832055274919241 0.054830695417470175 0.03370263367736448 -0.12518538275239624 -0.03957965331312192 -0.013780876095921785 
-4.491270245798227 0.06436961225875937 -0.784976526235406 0.47146223838406953 -0.27821437931222376 0.19846418275250038 -1.2645721409322828 0.3889102253176656 -3.1147378151129153 0.09720969817815521 -0.2011673301824156 -5.6494462567047945 -0.02659981961198199 0.296321375447101 0.27081600651249815 0.13013225445152213 -0.47592884944128877 0.6670416463071461 3.902687045448572 -0.22021149996619208 -0.6380400739138347 -0.5764597153144407 -0.6940906601705704 -0.5352018849232961 -0.03665343828091121 -0.1161211027358195 -0.07412718355207576 -0.0906735010254823 -0.7324496101208466 0.041935024013055766 0.20396491584023313 0.3289116778273353 -0.1504507124386757 2.2945298315040716 0.2987393540338066 0.3934342279586268 0.40121288502630265 -0.1590818019769043 -0.07334102170945948 -1.2023733250528719 -3.5597939217517154 -0.264761003959978 0.05104269110224342 0.9732683791765055 -0.12598621926859527 0.19174938333896077 0.04104175582244307 0.1684846661494983 0.19671376539627605 0.47555417136578115 0.009814842748947573 0.06409685899034342 0.005363539284716058 0.13087530806053355 0.698595643121297 -0.37225751604901863 -0.0665361789087417 0.0070504339663412284 -0.9018542714691925 -0.740245256971451 -0.16854672122990863 0.3210130644974353 -0.621454781206778 0.08882908556363853 0.5913216243859599 -0.47029757501936453 -0.609163767957136 -0.16537625101504808 2.0795651435410476 0.09537840528673824 -0.609229007384068 1.64011938631346 -0.11635955804174383 -0.3614516523890875 1.5059856683710977 2.0015690617136936 -1.6986785357064398 0.883059773454981 0.9192018203737183 -0.3704843628641455 0.8152180728365584 0.2906744778348105 -1.8400027870502003 2.6516649066450357 0.8081662060724984 -0.79268156896795 0.6091404095047472 0.3361769476219604 0.31819440582656533 -0.7997522403258749 0.08004035810871746 
0.2947973907451578 0.31280975066121064 0.23650532496213258 -2.887655472393715 0.2818293605532429 -0.13475065151642143 0.513041250643798 -0.307185493211675 -2.8438390494280665 0.2757849528368012 0.4430066565310534 0.9461478500934337 0.41202301491546156 -0.05933053152383704 0.7443408154715816 0.2869647774665906 0.2202397741084351 -0.25045268551958905 -4.8523393651314235 -1.6907910643366006 -5.926606470526448 0.5998867338117161 0.12709797271331455 0.07008258623055807 0.09005104259012614 1.5590784057278695 0.7890854840431795 0.5341750267619867 0.2488925212573851 0.15571821552350926 0.08409776401782362 0.4220295567764834 2.1123486728882566 -2.9159175929627636 0.34295459777462856 -0.3991648794887176 -0.5848340433855777 0.006557446538906384 0.2486624777929622 0.3988458857516596 -2.805873332770367 0.640154410860541 0.18492538205399972 1.7814014880264335 0.4374005264596408 0.4160153274256592 0.49030502465538384 0.015861261999773734 0.06149730785422953 0.1743960222844685 0.34276222277931334 0.23987691926457003 0.16214081047293732 -1.23697946746936 0.5600134067901543 0.6178459442105297 1.728465993375593 -0.06274211099589323 -0.8733791821031542 -1.4277870108869724 0.417166292630883 0.24096270008736295 -0.11028598122372081 0.038792147308721756 -0.6308129757050615 0.80375751018264 0.5615712012704157 0.2071436853679019 0.5844403682919732 0.046262093817841334 0.08111891360094584 -2.037919952099122 0.349190827632488 0.29425616953539296 0.2288722288391877 0.6113046505335948 -1.1317079306809066 -0.42372753780383904 0.3124127738830477 0.4036858805235873 -2.184843302333865 0.09747017440871122 -3.947183691706326 -1.8611700867869825 -1.6411937458856167 -1.0103736338788363 0.05816075705548643 0.340816037647408 -0.1300851046252157 1.2300790016393108 0.1602178725246277 
-1.3539087832015402 -0.18244296871642485 -0.13140052125438273 -0.38071994719322544 0.01720466168474908 -0.08763106605153478 -0.18324593498371386 -0.20542699493339964 -0.5193050302415669 -0.08299175779914492 0.0028300795790316773 0.02712708034118946 -0.1443724861309929 -0.08800205227951671 -0.05985863850769915 -0.03389388116648883 0.02602156807219877 0.0040689341502444356 -0.5978245993199474 -0.27989078969705233 0.08013076328392757 -0.21210952102702738 -0.1638390898242431 -0.1422183398192473 -0.16622853014542216 -0.394568448939533 -0.28112664323947467 0.017289978894457055 -0.0826878930043924 -0.06587114403006608 -0.07085561541000569 -0.10408318670298795 -0.23347519677374629 -0.2558051412191462 -0.13165552760569002 -0.2340102916630634 -0.11335100307977895 -0.0957745643228365 0.02319240296621723 -0.22619430252494516 -0.009450727865979534 -0.09598573619178277 0.07452970291201387 -0.10229635446651944 0.007928960676531911 -0.14843253862724995 -0.1308567214593336 -0.1467835448320242 -0.05270246281256129 0.04694464984965463 -0.02280734186959252 -0.2026026422184788 -0.24575848062060776 -0.21364352018943697 -0.0889297293444722 -0.15362873961059337 -0.03923306627123909 -0.06994786236152607 -0.24245221431056488 -0.22833970742865434 -0.28176317993420874 -0.2426765506269098 -0.2486152668622184 -0.15095514579286237 -0.03722860936782835 -0.24611035297515768 -0.23318372795738587 -0.1497892061822652 -0.25999056998369424 -0.08026880310458559 -0.2139620866176986 -0.030591140428866584 0.04256463308992161 -0.06183965771998483 -0.030269146091480403 -0.1690302122589064 -0.34099190285497255 -0.15705403329168985 -0.19597589373037708 -0.0814388381123502 -0.11344514401546275 -0.04784394094711414 -0.42626739869425695 -0.32531359704669743 -0.0899898899212664 -0.16761857147219417 -0.2024008241635162 -0.19495474779377184 -0.06923045908761481 -0.18624871345373223 -0.18860333479987645 
-1.9567177441921704 0.22137118213779425 0.19092340842973043 -0.36039952582786583 0.23875596177963898 0.28014460288197274 -0.13516016211277074 0.35785844047591836 -1.4898207189513832 0.10875150876742083 0.06830746344561557 -1.3521510758853597 0.23694281382328447 0.14387366453055284 0.17693638140084395 0.2600757831447175 0.02415074432079125 0.40099863157014176 0.34106731398887585 0.10417193445652681 -2.410858757628396 0.024741378047408318 -0.0688567792493951 0.17616983644365228 -0.04634429135678577 -0.47994113760331214 -0.04036500178272862 -0.08981901466844419 0.015466951477900698 0.09859928656913945 0.17989330218364336 0.13026675834689966 0.7697138062478179 -0.49255212307405305 -0.13129475581489805 -0.07917489892798148 -0.07504047578185426 0.29281871740398996 0.10233803647516056 -0.13592726993058354 -0.9120941006859612 -0.14221933846349402 0.10180720785639627 0.4806405367798373 0.055162704908810596 0.24038951172024015 0.09023748265791062 0.26018569350193144 0.3203240834643975 -0.07502601064213445 -0.3077148471879291 -0.38633962326312027 -0.1211425204101645 -0.49228895605313705 0.3761511918522395 0.19937048951590403 0.008483455892829709 -0.011355654552339731 0.19168311337305893 -0.16050574919106164 -0.028889878239259648 0.08262463411735721 0.27264604220941124 0.11502271957997563 -0.22016970102989766 -0.1943207691093957 -0.0600036783485655 0.18018361849275064 -0.031338817111610115 0.11018318109608029 -0.4140391022757922 -0.32252782932897733 0.07076428503159787 0.21925938489736443 -0.18975509350837902 0.6894534243531932 -0.33171017270565983 0.46100473911188955 0.05964974378491375 0.23953458136679803 -0.08628322944038297 0.1255648730981708 -0.23313573345541394 0.25375974746830016 -0.4882186027274516 -0.28859845957234914 -0.3953696251106593 0.2250944977900282 0.18631997455272795 -0.1261897051003204 0.14010751948206404 
-3.258068864899153 0.6487225524371869 -0.6385687046920834 -1.3714045304372657 0.632811591221391 -0.2964690149038073 -2.128891993187772 -0.23917415369401265 -0.6436510121662955 0.3317606924417031 0.3981553353094845 -0.30969651770252316 0.3907806906035243 -0.3560472458496606 0.17522481944574625 0.6152987972821863 0.4214915158938001 -0.8279218694606808 -0.9542165266820355 -0.36371953123976 -1.1249335465458667 0.04309613727587547 -0.027643256164021763 0.5647834715682942 0.37609267709792027 2.626389670902608 -0.5942883669920799 0.08188554498377229 0.08583213191796031 0.3674443176526521 -0.003967989108695653 -0.06871251174933019 -0.32896478020984893 4.611878032521072 0.44162250990338797 -0.6620579138220731 -1.403086291245634 0.3012065944606313 -0.16963814647787534 -2.608232109450269 -1.8366264778525438 -0.6107384105127153 0.5066042035468292 -0.18456651024348153 0.45427444612249157 0.3530172285677242 0.0004633902143365355 0.6727089985817323 0.5778754897804294 0.4810700868282168 -0.7881416277788361 0.13250463118245415 -0.2796011866824138 -1.0795148949950175 -0.4476518140928644 -0.5293126281986434 -2.945684593374176 -0.404571026651183 -1.3416756222283297 -0.26375204776657174 0.10574355297860838 -1.3970084209896731 -1.494834116301679 0.5275164360724122 -0.4089644093672632 -1.5234291447222585 -0.9860110802107805 0.7800981686268268 0.85857693492453 0.701105295228799 0.9903145711958034 3.7791063954000057 0.21581688496752716 0.5626896630810263 0.4065319353237379 -1.3013708184359223 -1.3763418626242367 -0.7039400400379159 0.7394711263626149 0.20198151587977597 -0.8648824456186983 0.2609901292671957 -2.1426438652771735 -1.8406422315940627 -0.45145374150178474 0.6331063793293389 2.4027019285711106 0.17688197844748887 -1.1472186852392454 -0.4826241349408922 0.3358591517688197 
-1.3545878128999576 0.0650583603968337 -0.07301298520225226 -0.1824598399729404 -0.1392854836508643 -0.2804185194714156 -0.29524653436635967 -0.15129903424130584 -0.4057947626680009 -0.17097569703862042 0.02686106819863303 -0.31148549652887364 -0.12275410373343998 -0.17935786683007165 -0.05801166558105524 -0.03222479887858956 0.08401990091833672 0.023235446330504082 -0.1533415977907247 -0.3065480264428214 -0.16989206064862403 -0.13795927304915867 -0.1899129816254906 -0.11929677989338336 -0.1438169807106518 -0.4810633912138485 -0.05058228845766023 -0.07819109844083297 0.13789134772077083 -0.09443340797935165 0.041282487960017204 0.004680056654240186 -0.13334758216801762 -0.10713724691426517 -0.019048925491118217 -0.15958748532737246 -0.057807943963444616 -0.02226037556245403 -0.07998216391422594 -0.3201150953446153 -0.4255221118978306 -0.16552595178192003 0.08009730317219281 -0.09342063717011151 -0.09278260755707742 -0.08515271284210314 0.10570247406718614 0.06966769664017872 0.020519816272134672 -0.15628577993139614 -0.256643210138951 -0.09714212530320397 -0.023435716217083572 -0.09425239989627833 0.031027915490555277 -0.11713885208708982 -0.2735447515739662 -0.12723027954776872 -0.14623385392606242 -0.013797320571678352 -0.033054969176110977 -0.1501737937218795 0.09335407863538615 -0.12840616009203135 0.03813051868421242 -0.12053461930033596 -0.12386962262811882 0.06685108371578152 -0.30089864299079083 0.02896550175735378 -0.18173023634695737 0.007616670040912104 0.07518187130696397 0.06052925206698773 -0.010597610914844121 -0.21487179130094042 -0.2996701829225923 -0.08978906578034201 -0.14517840713509417 -0.0993157068282795 -0.21199185149105604 0.1308252143318241 -0.32862423386496353 -0.4087915301511507 -0.3037438879904839 -0.1683731487183391 -0.20922196287440945 -0.25087670470797685 -0.232877417467797 0.07912947569260441 -0.11539580790018632 
-1.769064693249443 0.02782170246910508 -0.04227788373528276 -0.8934695212082927 -0.19714794560148913 0.3329217779712669 0.40093319222578455 0.2576120148687083 -1.2654520154314317 -0.2335845466340809 -0.19307565766801985 -2.161003571007234 -0.12720834360492375 0.29204143687604783 -0.210271031388614 -0.16926135603069611 -0.37462667531325655 0.5707381647668307 0.6805851240506391 0.49359386553806756 -1.5852925850524227 -0.12252198128275657 -0.1522471520794978 -0.2900861593700696 0.008719585804390608 0.90418137752985 -0.018477184985204422 -0.4690355950458725 -0.395154105795185 -0.19762756998170758 -0.09125335970697392 0.2099998951222636 0.14475282788868185 -0.4171301417863903 -0.20200893458041816 -0.19671178462437183 -0.2191771342984834 0.07754968686250699 -0.0005294699909269764 -0.260197083298747 -1.7691929798723938 -0.4450379089286058 0.06338296052633127 0.3858409899977872 -0.0654700545816185 -0.0583007985159013 0.09313162902488764 -0.025822125450969173 0.09824905615450781 -0.023720194737814084 -0.2807413655944652 -0.30491394171850705 -0.10107355410594651 -0.7986597001280781 0.5634573933192474 -0.1995249296491642 -0.37269826992972166 -0.1674395255649758 -0.22138110038185949 -0.4844504348436299 -0.0894860244211764 0.03991374424962003 -0.06676159629312949 0.05450199697242648 -0.29523438439122224 -0.08727275074376724 -0.2728165988147589 -0.16168883002971735 0.019469281539113665 -0.013041360919957739 -0.6128227424557681 -0.2900916710805687 0.0049624027047112905 -0.33889288915495486 -0.11559198658072327 0.548748860463424 0.7054798398869628 0.8720241909792109 0.0817488823360071 -0.029795935547766963 -0.10160797337096134 -0.026709190196717837 -0.6216137638435683 0.4858955832722845 -0.39654356759054565 -1.1834704090947132 -0.6607919456814699 0.23823150884913288 -0.15406288555780306 -0.353195497722682 0.0030779758345039305 
-1.838752571673058 0.30597885495254107 0.5226453706484749 0.05904030241380153 0.365984940804843 -0.08663231837617467 -0.5950769929619711 -0.360043562731462 -0.6835985407575214 0.2475948132405827 0.40471523434455503 -1.9831825197563369 0.09222949725691401 -0.02430092490338861 0.3108096346352874 0.38831902538388924 0.5698783644421257 -0.10191250345145858 0.08380505925480268 -0.29023391120744285 -1.1366097624412859 0.4073750138839105 0.19778582260246858 0.4662992828826853 0.27848617533302583 -0.07513018853107598 -0.033406275993497624 -0.05411917881450752 0.5908475117379063 0.15046043841483983 0.1974327277396168 0.2546136437794588 -0.25283748286123114 -0.08830211623081198 0.16522082254050097 -0.37888165063474993 -0.23955351940377867 0.22597482401108077 -0.0011520662331891513 -0.9304458834652386 -1.4384514245672324 0.07984125652747805 0.09603240965612957 -0.35094090898508756 0.3649584274158164 0.14256194816447013 0.19170716385524292 0.22897735193301805 0.3602015875578923 0.06084202056402781 -0.14809222530250518 -0.2143705952256236 -0.09164474096478542 -0.020595534761734712 -0.0931819704253647 0.28157924758441055 -0.7485499044212092 0.01658770323887967 0.3329932200948415 0.019740835783164074 0.23229144470569152 -0.41985503195265134 0.06113300749233038 0.07921348731491937 -0.32353133350471625 0.1856352549846648 -0.03692718876452598 0.21418781787274618 -0.5930083407178535 0.14772275437733115 -0.19215009491664659 0.10881350480026454 0.036387801576156564 0.3178540168202792 0.23414678138856487 -0.04857268010069361 -0.6954537518518135 0.017061560008110814 -0.3789443545316907 0.26673206468032 -0.44813675094475397 0.12188566639176776 -0.1456988525333923 -0.49577463011022077 -0.7847319076917668 -0.15460067269010141 -0.03905908915470933 -0.10596065951738125 -0.5106010543271884 0.4637790045013742 0.19280653483138013 
-0.8383340116824399 -0.0386823937053901 -0.11225669591153578 -0.678961013922616 0.026812912785412202 0.006959610746553612 -0.2927701437084148 -0.0034783196562906834 -0.7397915618500316 -0.20809872557709033 -0.04969604605767997 0.07559760446249696 -0.12150826760196956 -0.18297828527594004 -0.11754593364390963 -0.02068378149824035 8.949606413472486e-05 -0.1704262627886136 -0.4049196058000724 -0.2927570989748887 0.056359246687101947 -0.17141827596884646 -0.31425747086398415 0.06142392472080584 -0.07410863662394807 -0.550404036364457 0.043538727145849485 0.06066045766516096 -0.10035947705912486 -0.19406565105608825 -0.17076286985637898 -0.13920069121344364 -0.0012878119109093324 -0.28044097941329676 0.03547579711193818 -0.26605372206431993 -0.12976094886288472 0.008026135822187096 -0.21972628505649663 -0.3240960209786583 0.4494691449168472 -0.18398120721202305 0.008514406720224124 -0.14678832395115263 -0.14808192887160973 -0.2118190916509704 -0.19913324540472355 -0.034487418802531276 0.09577280014591237 -0.03242437897366376 -0.058976749411792956 -0.10569506384740569 -0.06237578482442748 -0.5838014778754377 0.08354889963887638 0.15873790423426104 0.31384704121934487 -0.15641923993573217 -0.19663232938593406 -0.25844788983969236 0.0034226553140334665 -0.000589178157027148 -0.2423145442376855 -0.034809600568084346 -0.10287346984823519 0.036253903025185996 -0.015170224488006041 0.10558314508620602 -0.24456688338024593 0.11976521828656918 -0.22712846893246993 -0.14623516102446218 -0.19484621373602648 -0.20540906034999115 -0.1369192775631855 -0.22266624589588518 -0.2034362099691423 -0.056064449091746994 -0.19063836946958349 0.057785306321041556 -0.12856908468833655 -0.08645671611834489 -0.7548820297003179 -0.2995750209731646 -0.20486328525391279 -0.15314398224007286 -0.09146717626029319 -0.10924048989670393 0.06346746914274438 -0.14053442902892077 0.052841140817774745 
-2.1446781302211613 0.016580242895084543 -0.16393707649588368 -0.6011542491081807 -0.034315183635558015 0.3567060987910601 0.03984125688786172 0.4455086021107743 -1.3228721721174335 -0.09746550787670744 -0.1181386876371942 -2.0413082961408646 0.03401453139352192 0.22258692291076257 0.07712285991851568 -0.2103869369167054 -0.32480304492813794 0.4638304240695045 0.6806406445079748 0.056497332205098325 -2.245215470576674 -0.2523775098810375 -0.3551064702662535 -0.2642090441986976 -0.052720146257888977 0.7360928736963684 -0.013308835079784155 -0.16372396264237923 -0.36577315901704416 -0.1549747118837828 -0.034264950604121124 0.345051542273111 0.6532656729966149 -0.42471171748505826 -0.16023621366877538 -0.10904635073022265 -0.10365205613697782 -0.03249394460800333 -0.08740047391766033 0.06584167120644607 -1.8449774943470292 -0.3440285112861446 0.06022185936392096 0.8747096384945745 0.014558872696972145 0.14175294557825655 0.17619130624660045 -0.09062164363409068 0.07627248234868976 -0.10892053850649178 -0.23937803954484124 -0.19140497414286772 -0.15208853084855606 -0.5377895375255114 0.5518161659012832 -0.11566571298907784 -0.07062545087790574 -0.25742803410756593 0.021686768659394857 -0.4904421922718665 -0.014725447306630914 -0.08331459034639564 0.0178618837495421 -0.20500038573151746 -0.19879211311903403 -0.056298379998873646 -0.1844564752833063 -0.20980753330008192 0.20679452018593206 -0.12797726876148563 -0.38962416643761383 -0.24427536734267258 0.08627397208137456 -0.17422191767177037 -0.06488069681915459 0.7588198306592361 0.04876194001721154 0.7123672033622357 0.2734436007948527 -0.10652143062149814 0.07978301523148806 -0.09041744226644248 -0.6834070677121472 0.05198295822479666 -0.15666347057336188 -0.7736724423877724 -0.36131672865421594 0.5941788293958862 0.13463127999389665 -0.3035407305384921 0.02958536117490994 
-1.322612268520329 0.07536819990884117 0.08263204660017008 -0.3623334234151637 -0.03915628054677791 -0.03466508848267479 -0.15843740294519046 -0.14811107771814797 -0.631696209580617 -0.06468729150266878 0.1284142476235394 -0.28953507100703624 -0.09092022279773575 -0.07803363445767876 -0.11091241870867964 0.013496279413172574 0.10368856809041012 -0.14780457918859816 -0.48814929395588963 -0.11004626805519824 -0.32856759010429193 0.1516534485135005 -0.017676202252103035 0.0783061971187616 0.11228764066188097 -0.5419791984466413 -0.12681118884416662 -0.1714295647517812 -0.07357719681463362 -0.0843305142846346 -0.1009690628152903 -0.010571879837193269 -0.1114395000787431 -0.02848313962106062 0.07185333970852008 -0.21633915975001627 -0.09120535588275049 0.07559175227321133 -0.06522008743309855 -0.490037849339267 -0.18474801755628498 0.0406980577035369 -0.028811767359420506 -0.22062265656239555 0.14271597273299136 0.015444856803782187 -0.05146240597772478 -0.11639694674118616 0.08933607162847652 0.01758575861609969 0.028842223847755095 -0.14304107130994662 -0.156973761271949 -0.2750746595805739 -0.10717825546298124 -0.06357910246178197 -0.13712715928245175 0.05657092965971955 0.011540007541076962 -0.18345451729147694 -0.0827423343073348 -0.06180386879986586 -0.018464031350691818 0.01706540556784011 -0.1362630239891427 0.11472325961357914 0.02878384320255785 0.08945175543832837 -0.020002575314033502 0.008422665974400022 0.030035785417917186 -0.16524466218436865 -0.1613797667622759 0.024324550014593865 -0.1483722227167448 -0.15907759671616406 -0.22418268486787893 -0.11879518324763882 -0.0319532084776694 0.020704883662870193 -0.10406224858532818 0.11053578398481807 -0.36732212867656616 -0.42958497016234526 -0.18809974351754288 -0.145578197926135 0.010435725415318155 -0.2768668868777433 -0.10919582267808967 -0.0685898009917083 0.13711933397439383 
-2.8057860909966212 0.29250496219468775 0.2577322704337667 -0.3729709773920353 0.3796832901526421 0.8601461367817069 -0.5779890843371026 0.3901893389294161 -2.5206988604317893 0.03794755783900574 0.1395756522628025 -2.1287399579061055 0.13605323901552246 0.39250413674416423 -0.13664976381536326 0.2551634930353295 0.13003691412857515 0.8058570294932107 3.013660120811743 0.5110467022712823 -3.1479108183353297 0.03825918974064075 -0.3352536038621849 0.23380326972653784 -0.014678610952848645 -2.1297086714628537 -0.09906640609286275 -0.4139989641958611 -0.004572590463847711 0.16517830406846712 0.3093001435235102 0.34434635139645925 2.63846624369865 -0.856945502368245 0.08261427765921169 0.21567712912917117 0.3710100424401945 0.12906816425329978 0.127153850942628 1.3247834481583074 -0.13019059593484084 -0.8586171609794958 0.18938315313329038 1.503544384540535 0.038988335637646095 0.3278739966209274 0.10959319588250345 0.22098827948624158 0.1456646676863391 0.1560162365497719 -0.24249169889525662 -0.6711012064952077 -0.10177147005746283 -0.5643567685144069 0.8997336175698563 -0.14728449246577635 0.4809630810142136 -0.06094904542465618 0.016152300822102495 -0.24332586491910033 -0.34325343521900215 0.49702836397662314 0.1860958483813247 0.07224223642198092 -0.25433693930409035 -0.7733214725327405 -0.5001239209009468 0.2896142460139597 -0.6907903377741716 0.09886179517903686 -1.227666432637197 -0.861063333354321 0.21714688271797417 0.20152913403874168 -0.8245373143052497 1.0461901686105983 -1.1775310732292772 1.2952414837622206 -0.2948088384341213 0.004996284254786106 -0.2282145634527262 0.2777180078686008 -0.3878690551622028 1.1165191572276 -0.745919102661755 -0.24605093822386206 -1.187334714386399 0.9262450655888683 1.038201108054793 -1.1506822474779337 -0.026800552170195863 
-3.808890981361997 0.635750177095276 2.215918706800495 -3.848262844396704 0.723494297898319 -0.26859860306422434 2.9574699579257455 -0.869136128816133 -4.792897743102936 0.8029479052135724 0.6365778589661852 -4.010621949299919 0.718424075348019 0.4851733819534385 0.9445720603292553 0.9117539519253752 0.6907001086499793 -0.16694367372281346 3.529454879558767 -5.648609320351662 7.812058186019103 1.1452887871739992 1.8871325279887101 0.5915732045975926 0.9867996393146138 -5.06646861240728 0.5043879561065592 1.0329612069382377 1.6285802993039677 0.6936899315921489 1.3775826428531732 0.43927237983444495 -3.283481893912153 2.452818299335449 0.6619531200778616 -1.6497284812087991 2.2323087481280663 0.5919113760596846 0.458350110176301 -6.255501931766751 -4.26403893631665 0.08896908573470068 0.6464987057133035 -4.281501507309344 0.7313684604431804 0.7325876597445923 0.6721647098980567 0.718883682673785 0.33862145283372924 0.7920729736394944 0.8674173515622322 0.7640538867066372 0.8995958173174184 -1.674012501648402 0.45143298747191896 -0.18119407995737422 3.3362652310475545 1.2081246019085894 3.618867221827499 3.395173267815716 1.1348709879523946 0.6595178672393747 2.6740605640513486 0.7340154371722609 0.7828279169535042 0.646245975222372 0.544206371220276 0.7127258656378233 -3.083252623491596 0.7280713096873758 2.08774381118231 2.544405869772158 0.33721238836057665 0.5626701181978435 1.1943624369218615 -0.9434037137041136 0.8640654789331845 -0.5156108205396414 -0.8982561175526944 0.707791051268039 -2.5949608025987843 0.48827500482795105 -1.7760986663403637 -4.500944864246396 -1.1724024067640575 -1.3173105274946832 1.072466595563667 -2.4598498534355135 -0.5416629981113328 1.2152220298875862 0.6214589833698245 
-0.5637958447278694 0.13392038952401633 -0.12958719180004996 -0.5160448926028812 -0.07456571689656924 0.03502028440740047 -0.09251246131687182 -0.1160184208466841 -0.5221932324453104 -0.02230007546847436 0.11542735321468994 -0.722840205571255 -0.06042307298840193 -0.08782658958074127 -0.06442165661235748 -0.13270255073147816 -0.09485260201428503 0.2312578194667665 -0.13496035199333017 -0.13283247163875941 0.2862974036044232 -0.0035460568415402235 -0.16839001094618783 0.019494530938229764 -0.14906703369491292 0.18503741535960994 -0.15497753935042505 -0.17983159024332482 -0.2143475317090234 -0.05237658569749941 -0.07074592925950383 0.10028800138601245 -0.1588192579507531 -0.2723045897024611 0.046497166557526316 -0.05258716497061547 -0.06228674128903635 -0.06081928351884402 -0.058564395499319404 -0.2546110497739043 -0.12216636677247714 -0.1410639001053578 0.06116824227282977 -0.11905289946560511 0.09596953178849692 0.10367751216721084 -0.1600303295934043 -0.001340430087875774 0.033641761586048216 0.09478776072582493 -0.266700269938815 -0.10024807503716521 -0.15427807979386748 -0.42671121183704297 0.16991496519591515 0.17915001331514827 0.07535376876580002 -0.22936611049031178 -0.16687887298600507 -0.3168776494137851 -0.19197167908723006 -0.17946687704791237 -0.21055132625677483 -0.06997122854694819 -0.17003420341728906 0.4185327221751896 0.0729783616259865 0.12049450393000616 -0.22639495227092588 0.08399546719825361 -0.347611396156562 -0.17014704974607725 -0.16909028861479755 0.06423899787654681 0.04657539495217537 -0.10482603937895583 0.07931008814558212 0.2351576462555963 -0.1795781492821474 0.04973567329977327 -0.2867047249088487 -0.0222324136133001 -0.7876287338328376 -0.1035816476214184 -0.3910284137568024 -0.6411744648105805 -0.1805476566650822 -0.0774485218750703 -0.20541694209065267 -0.08623895145592637 0.041431487762526684 
-1.4102270257150957 -0.028420542012821372 -0.5619804959926465 -0.46512075459129687 -0.11569415249021155 0.38388163511143675 0.2484651922294749 0.20226589382582927 -2.995670447031933 0.10218922840651522 -0.18997194893466218 2.2119619900014964 0.08124507127179466 0.03728873071549447 0.00023209179100921857 -0.22219371054479475 -0.1344295245869397 -0.30503276754370384 -0.010733512747634972 -1.5322986986349871 -3.3693176764976913 -0.061572960872189 -0.34913447779530443 -0.35407869467093617 -0.048948282473900755 -2.274339441112713 0.39849317188405053 -0.17483567499184632 -0.3707301679291294 -0.1301722858489912 -0.04807909450912048 0.16353517562169334 1.0111505201256241 -2.0694905643395947 -0.07376600201394294 0.6909606770346957 -0.1764823717948072 -0.029714939751164793 0.06916802925835604 2.663914874493861 0.8123342537031726 -0.041068732187865394 0.030399144423741142 -0.1853117141319653 -0.1904768824077222 0.13326917687827183 -0.05834912042798092 0.021181606320788 -0.02982951490259922 0.0005133329106049475 0.3404043193429159 -0.1375221773740232 0.1613022074400811 -0.007546735141396127 0.08226205334719451 -0.10294218213046964 4.3957251376842335 0.20001410511491055 -1.231540444194567 -1.575983822213008 -0.22565974567847358 0.8628041732966465 -0.38370411811826266 0.023881410562067867 0.0247020361129163 0.24090939575536605 0.20211377942949807 0.037049035985522734 -1.4689171054305938 -0.013847362298150354 -0.20692139215088293 -1.835904416999135 -0.04973311186702495 -0.27135368874319205 -0.8635468354413505 0.08370454059773157 -1.618494752948863 -0.6177090360285955 0.20115507276237232 0.03283182650917159 -0.08592944848276346 0.009060989011585691 1.3623254358654795 -3.642127546763355 0.49783339745315336 -0.2756032272078625 -0.9453422816113318 0.19692275658329553 1.5172810291111825 -0.31372402499895 -0.028763840091495484 
-1.210516148241561 0.05752415836230167 0.08826366663359869 -0.40573482718094417 0.049817629026977873 0.3413389514028062 -0.3155551030955948 0.182273258319076 -1.1857870947143565 0.11068025565212174 -0.02095304680123065 -0.2822978049121674 0.09730911875954 0.2796813956084614 0.22612408972993556 0.2586546599687654 -7.457983556105248e-05 0.14547562928888064 0.36931059467284716 -0.41128852738906124 -2.2678081929302136 -0.04212492217085272 -0.080593805261935 0.18456231354834948 0.038857913081015 -0.569615482244837 0.08567270868360873 -0.22976121844964878 -0.1310421661293058 0.08692206032710896 0.12637007256488417 0.23607186276328132 0.8773111826651248 -0.8543212011966119 0.18036178284392768 0.22136500278211546 0.07268943946500431 0.04306849580756058 0.10908231522798567 0.008760261363815589 -0.8782774685301046 0.023354413645585322 0.1365085495859318 0.7651705709734491 0.18852995322018604 0.34745392257088303 0.18170249471896094 0.2478176312657483 0.13761948039793648 0.05459183103476559 -0.12697876161713922 -0.1817065081095231 -0.053063803307673456 -0.2555033694598877 0.2018825370167566 0.27736379389196575 0.6942527617213121 0.026919065344930174 -0.34622301357694013 -0.6727692607780923 0.03321578355277825 0.2070814822969323 -0.13599666473702743 0.1538711818162041 0.04539431734834182 0.1245823716150765 -0.09225337389750664 0.2009667984519849 0.2284814775279675 0.25416534964261733 -0.1802708827349069 -0.7959598010330422 0.3029037485080564 0.17168232259172084 -0.14357408086631634 0.467209980424882 -0.49208206939955973 0.015359510852198612 0.12429118234574735 0.1370325805877063 0.26179361465277473 0.10709907486711621 -0.27314101028341503 -0.440373296787532 0.19850733318113123 0.2903588124550089 -0.03940119995775467 0.5402574475391722 0.4889909012155 -0.014995151674117338 0.11781306130193303 
-0.8246743923394558 0.08414968279229695 -0.6442084513745835 -1.1472723134949423 -0.05398360021335329 -0.0005466242564081685 -0.5502325959500433 -0.03839846452124941 -1.006213759047603 -0.08241561952010115 -0.2613695666317442 1.3923713244474358 0.09370702847232704 -0.05461811485164163 -0.13084546692459742 -0.020173492291903683 -0.2767300789895194 -0.3960167294621554 -1.268764429200352 -0.8987196794964198 -3.7743640434624344 -0.09345327802180234 -0.4675710878172366 -0.3031407232598681 -0.17294141667997084 0.7565385571128593 -0.17242961404323442 -0.2399273476172008 -0.4901023246947213 0.0853305119254939 0.029116559491311082 -0.01299846628820082 0.03966135853690963 -1.4135751696297292 -0.08069884483354572 0.5226749941796518 -0.616621088989606 0.05486193278790156 -0.0801865742781094 0.2509111552803031 -0.12664722435424675 -0.26267281460765496 0.10139561444990612 -0.26911793107533694 0.07344067071436641 0.09996770471489565 -0.0024751055305981284 0.12323300250933669 -0.033047947896903615 -0.023691184670125712 -0.028359816455819753 -0.12348108288766553 0.11847803201749356 -0.8430172488648262 -0.11219854227865642 -0.048804476508286926 1.6932988478949333 -0.20360365335762642 -1.1111590759984595 -1.2545411427728572 -0.2779555432995247 0.15461201672460392 -0.5908470261126738 -0.05392794593484694 -0.059349009501414376 -0.46304992747456253 -0.30970509353182746 -0.09591908465485491 -0.07534479119679684 0.06826830668130829 -0.41335180375470876 -1.2970089470360184 0.046156597627158936 -0.09398229216585294 -0.40244467885337426 -0.008986880055192457 -0.9739948818369182 -0.7150544188777074 0.38747138014913185 -0.06616057801955696 0.2583883898394653 0.010198084002732241 0.3944724102344784 -1.7061507302728083 0.2766947395617522 -0.00348830320783896 -0.5770983882169397 -0.022868169747867467 0.6638631425889772 -0.5925589652889842 -0.03584820085579907 
-1.0849321553123166 -0.08515182082306548 0.02267010861044273 -0.3111326897069499 0.032537327437262724 -0.309608622652809 -0.3560825374110917 -0.0845045225824219 -0.5774212231569953 -0.11618757822200047 -0.024495748089770116 -0.03856313468494001 -0.0062308186810509205 -0.3373416329994263 0.014789703183574957 -0.08895911740566105 -0.08362649331972241 -0.2976115902181686 -0.3715914358885385 -0.1947014064783955 0.029321543726578587 -0.1347148010455645 -0.07077723707057583 0.005979495177616634 -0.22091088808255668 -0.7554379400046808 0.004818349434458686 -0.1582054419599775 -0.134800420668086 0.06694972069631802 -0.16742051661354226 -0.28514396338010345 -0.20198506785479026 -0.17444887149765345 0.042090456844331624 -0.303794709776926 -0.28667014989203676 -0.1750502912510247 0.017038720150166366 -0.4909405094536064 0.0016534250362130088 -0.025661741526356644 -0.09375606475511368 -0.2813779206394166 -0.04737912801593291 -0.1613535048314693 -0.16714537863137904 -0.0694992153268513 -0.123524237507286 -0.2008776116523417 -0.040270088836331756 -0.18009556150575448 -0.18262730444851957 -0.24105511355001596 -0.21950324292245843 -0.09597096178885398 -0.1021340888243245 -0.17543072693388856 -0.26496820664447207 -0.17704066077274952 -0.2689890636306255 -0.27244087160420816 -0.0302330628390058 -0.11231347334380753 -0.09363431472742281 -0.015311718951513289 -0.1771592598890341 -0.014144504312375053 -0.08173942450130807 -0.15981022469477157 -0.11681326256373814 -0.10414680271261734 -0.0038286498941746097 -0.17980924132680565 -0.24107961985207194 -0.05164012635764128 -0.5294335376791127 -0.12633775070502076 -0.06852248685618365 -0.07469788073637773 -0.2507332518900504 -0.12727873643715987 -0.5897215708072278 -0.5450743037639899 -0.04445405538114681 0.12413879785306531 -0.10366550151561725 -0.03631259344142256 -0.2506738534294968 -0.11912560445072716 -0.1924569512953125 
-0.3918034394333791 0.24396856805688089 -0.07758171105413325 -1.8274641376885834 -0.042869588941322645 0.8739481724291221 -0.2788252637459139 0.9696158243835766 -2.1966776945197077 0.018077512478521067 0.023403938429941224 -5.144494274106387 0.03600896304968906 1.1848539188710046 0.09830436218890264 0.11457039078779208 0.13267456697487331 1.7949829983259444 5.0312986216765125 1.396210006789029 2.9336426462787997 0.23155134628060747 -0.5607246367342654 -0.06921494109622771 0.18832319863896196 4.338385051415724 -0.18920683088380078 -0.7348901954108232 -0.018260780629759353 -0.0775300387770054 0.1916438539281976 0.5775499143054756 1.0035564766297262 0.3023893162735366 -0.0977614680473876 0.8202114402304262 -0.18247120644392284 0.13032891179227854 -0.13486997391706435 -3.281940987661399 -6.145946731115403 -0.43124312647322477 -0.028901299250508522 0.7958106857370721 0.04557811461140455 0.3330958202029326 0.3071152383066156 0.0846662754597891 0.24581092364967574 -0.002764112757568579 -0.6028952320276623 -1.1591516578727907 -0.2955364042128409 -2.0700286823226675 1.5758506101890246 0.3465905827506048 -0.8920405509912896 -0.21241179849879496 -0.5968821435529392 -0.9771280221747183 -0.1923806705586796 0.3788805346220891 -0.19262185757031627 -0.042514944805045904 -0.2745436659333061 0.07336570503088871 -0.2176395204232678 0.06144136373085224 0.03976186871436556 0.04190390746228789 -1.5678258262636342 -0.10306203656357237 0.2546995460110046 0.07685176239734832 -0.3009147007149409 0.956294182527658 1.1692871806885095 2.3521847491247376 -0.2796883321911924 0.07396870371577688 1.2687671141325796 0.1948542251195899 -2.1388576961096453 2.032449498624227 -0.563766243539895 -1.1103784672049017 -0.5179749724495583 0.8824790925393535 0.3944784273957643 -0.5146025371452188 -0.07886784885186951 
-4.026420932295735 -0.1391153776676723 -1.2704880992049903 -1.1830950455940363 -0.0708844384442535 0.263260383176928 0.17551826555301672 0.6525803537751933 -0.6080359542483077 -0.3834067092244724 -0.35137959252577466 -3.844535150763656 -0.40517386702798575 -0.2927679525796521 -0.3601246715898056 -0.20999229713095327 -0.6400673749347275 0.21336448669163396 1.5049006322987852 4.588960109856794 -2.4347606305103744 -0.9471813775207646 -1.3094307654632764 -0.46253233991099796 -0.21098880746766108 2.5880444031746936 -0.8689591009296627 -0.5688970289056697 -0.9742668158661506 -0.054454999987971334 -0.5373783653540296 -0.23758250762931898 1.8716903978749406 -1.9399000911242568 -0.16042450410934572 2.4732606291064148 -1.3577304775383052 -0.12266506053989341 -0.6313814380200313 3.171343847559458 -3.061973231929704 -1.1198327926668505 -0.03273838292769008 3.113570420983499 -0.33790190182722424 -0.2735014669078613 -0.6885585417380761 -0.09912358430046095 0.03831388616304603 -0.2877845740295966 -0.504870235775473 -0.43114546070879084 -0.4247429055392373 -0.6043745132160471 0.11128654027418086 -1.1915835099457617 1.5831408580944328 -0.6757844782211262 -3.113557738278369 -3.0274445607352587 -0.62046553517661 -0.22540955237388974 -1.8846938599832141 -0.2940422500653524 -0.5902555734630067 -1.5130108744581763 -1.5662374341525012 -0.08963802718168563 2.755349037818645 -0.025454906593773544 -1.3584201641748754 -1.866222734789874 -0.5017016748733086 -0.5032534655199633 -0.37865104057795196 0.4388906318196049 0.093948157685341 0.640558172926955 0.8334655382000888 -0.6287081444331167 2.7562326857067148 0.0018210392121920797 -1.2788658761153577 6.5306247250676845 1.0981542903062367 0.29098682533782466 1.1137621730959626 1.9506753166555348 0.8607398421526259 -1.6983582276458709 -0.2475433309121848 
-1.3138792065147333 0.0702177257659149 0.3271510130497078 -0.3363782944747945 0.0953676091152088 0.07477587299873757 -0.06813719766553024 -0.0918497605346563 -0.49708614645723975 0.1753846278274008 0.2194265537432007 -0.4174870808613254 0.010392874623521614 0.04691863423942775 -0.04294447216953999 0.06519825922415919 0.16293592616227595 -0.18080332152874332 -0.33915930136198114 -0.11942720703319067 -0.7961150591994051 0.1259634689011499 -0.015482296974988536 0.12971689619439505 0.24595983983124597 -0.20672033370744836 -0.07569612797673532 0.1538119431734608 0.1428816106258251 0.18903185529195768 0.18058991067928745 0.15949684313138232 0.08862531210244369 -0.14406106829968918 -0.051706438823213255 -0.03144537120587182 0.19082471844491136 0.1224950809440722 0.1302510147466318 -0.46774107791918595 -0.6371915051062267 -0.1350823857274461 0.14766851262749475 -0.17099705491619802 -0.013168273613496926 0.05691667626380293 0.17468023329765145 0.1433571825857333 0.07203109934583049 0.18794486104920222 -0.1258074938867065 -0.09928108914312486 0.042932430879372804 -0.22966736155568085 0.0033595567127007236 0.016254851170033714 -0.0005871271654266467 -0.022822337458249325 0.14485800016669229 0.17489287958917318 0.19532541709543275 0.017930416887445174 0.127885488627514 0.12799721963272584 0.042637098523611465 0.04129383274437042 0.0639050259366833 0.0594350380439642 -0.06332682857337911 0.2402970815311559 -0.05183426108307734 0.16185634080915962 0.13054243829359335 0.22511038800048566 -0.03699990735899292 0.048339826324136 -0.1580681939585498 -0.14757636805195978 -0.04981377386609436 0.10211296016870378 -0.283230453376416 0.22166237993278506 -0.2900267115035439 -0.1773043885354826 -0.28180396247470185 -0.27374927086013234 0.06916120351894227 0.010134173424019505 -0.1551647853467896 0.18523450722391493 0.007923104538315677 
-1.1373766674127566 -0.12046805048112263 -0.19325253316978885 -0.4821376470577325 0.13372915048398074 -0.05235382341695853 -0.076453390457636 0.03078731299252221 -0.5875903196329508 0.12067326473118906 0.053838768821825055 -0.30452887852180466 0.07452206440554082 -0.026417311661370558 -0.045999885323788466 -0.11450429805955337 -0.14926022565803454 -0.013485633646245786 -0.6973322699361866 -0.04593888754114522 -0.7845378015841902 -0.034564373755363836 -0.07149023535946811 -0.014991298738308855 0.12752694602223358 -0.09588550469951561 -0.11208174005072309 -0.0009398360403022047 -0.1489757342874293 0.10171125498802651 -0.012277492403731643 -0.14351754066546918 -0.12203655485414543 -0.29936405247336134 0.07449145732516262 -0.04254307036214831 0.08876500153905097 0.08980623518628886 -0.1768692598168278 -0.037980986317909866 -0.31282869640361627 -0.22380761016560918 -0.04436809642335529 -0.09463645643624168 -0.15017230926583 -0.10015484048496766 -0.11457511237289249 -0.02921694512242977 0.08777505534590858 0.09296683737110391 -0.16224914474131735 -0.005997980457062685 0.03446451868809507 -0.25902122269733885 0.14481701081578227 -0.15358057507728565 0.20335316630974642 0.07417046046051146 -0.19274560108373567 -0.2357790259494286 0.05021051398629477 0.17080722071664142 -0.12099797022946475 0.08885111520553084 0.09837473949467462 -0.056222580831028775 -0.019851751446913993 0.03240422781502896 -0.1520381099345807 0.05631206317820815 -0.08290877890033299 -0.3002439195820574 -0.051507403892479285 0.017738252150472474 -0.05995175516976718 0.051281699173821235 -0.12749271301167983 -0.22456055798162644 -0.08135453606172188 -0.16101043688476535 -0.1981997697861009 0.05305256343340913 -0.4539150766498427 -0.12467057598393265 -0.11595874929311957 -0.06776774524643096 0.06631195500568629 -0.12614308268603142 0.11928819180059114 -0.1711418708568663 -0.023459409786593447 
-0.8480759208496925 -0.10720948412714096 -0.288462156286608 2.2510020360436016 -0.16598711041031952 -0.2990970427361483 -2.3987991161792537 -0.3301265949964483 -0.7394333689095958 -0.061240461696833254 -0.12649994021200336 0.31734232295336084 -0.09721843757656147 -0.6272288899014303 -0.35970958468276926 -0.14074701510048554 -0.29998119234029685 -0.510000011996869 1.2831979864631302 -1.2244519011757782 -4.833914433279205 -0.17868207625573956 -0.22768362377007073 -0.15959903207001025 -0.10497687090739423 0.7556564777322006 -0.09929478581446526 0.03691416658877787 -0.1911824684512897 -0.12662175275805204 -0.30555987224778197 -0.26337505267096784 0.4002360114317648 -0.30878564997122865 -0.12177266017330172 -0.611625778493076 -0.10873902921824925 -0.1532561455724076 -0.2744235980216112 0.09372957733381147 0.89607722413511 -0.19577487685839584 -0.0951077552186807 0.4375996444728387 -0.25821368615283474 -0.31221713131010737 -0.33351699743796925 0.05890640964143813 -0.1012735500525586 -0.1966414305764299 0.1299988960733265 0.08931484673401696 -0.10812939491313485 1.805432196866877 -0.5934403809094377 -0.9905220728220057 -0.40288236341082934 -0.061312520707837666 -0.18821306097767732 -0.5224380526600312 -0.3303019954675376 -0.005587780907355015 -0.1898287799543901 -0.06210303429741395 0.02476405707934251 -1.5411856903729195 -1.3485193145928935 0.07002767499874993 0.01051809205468756 0.047957588453457614 -0.33233544716473284 -0.2654510665542846 -0.10961092069936985 -0.05856482261478743 -0.39322200918453953 0.16470024988641838 -2.891310016125234 -0.15251996966691647 -0.04281113315546905 -0.14274255458126456 -1.5063488865683565 -0.07481409212111985 1.283221225724141 0.9298989477080046 -0.35895555107219385 3.911592492362572 0.5289410736279687 0.07839937650228579 0.05230682289860553 -0.7414308131443936 0.0590397012554141 
-1.350472473325981 -0.12713495054005516 0.28445420885987854 -0.05035959771656985 -0.06702912302322063 -0.13723527869208943 -0.12357433657375864 -0.03863383767626119 -0.1336603167191329 0.07267573373695499 0.007192589652478346 -0.49869373642149034 0.07242432784192598 -0.028014173480956847 -0.1747420002093587 -0.08978855872628289 0.018222541107953998 -0.20394646606948322 -0.33931846919126546 -0.19911980343100022 -0.16637797220809264 0.1291617454670158 0.09777286458889757 0.15865070973617726 -0.016038151549191235 -0.6306036802588169 -0.14584453929778074 0.06335941629469691 0.26339290286840006 -0.028464784786400882 -0.031558895645966215 0.04413762823858008 -0.20837167076431745 0.19053306451773944 -0.0903729329634578 -0.37811324879554803 0.04345465390827533 0.1503122267364516 0.054321646777437615 -0.6864664997391579 -0.27064217096073245 0.07623985791344168 -0.043975599414795535 -0.12790796581470204 0.0653655216282704 -0.10894285430517164 0.1797261422947871 -0.011399065537406279 0.146587458868466 -0.1321812332008182 -0.10504890534151495 -0.15078384862869593 -0.1891209288389261 -0.14325526490276952 -0.04928331903839524 0.1605637749933191 -0.18535384892192763 0.03111568819449151 0.16242917492248468 0.2859066045287644 0.0025914219251816375 -0.23721825954003387 0.16750163640716553 0.004666723102051022 0.06702931673534725 0.3834568603129725 0.13240602635753004 0.06382240240240866 -0.23008052285367223 0.07257043204655875 0.07017974509477393 0.28670629257368646 -0.017055613011849 -0.08823995366419321 0.1077696711300825 -0.07257464239209256 -0.2600290867899983 -0.10278631580012827 -0.15929629739809134 0.19770912306882618 -0.17515441566644388 -0.04801867599257471 -0.3109367832801964 -0.2486221573223775 -0.4209733116781883 -0.47239320636591214 0.07853183737138739 -0.3542231639030537 -0.38893121115670193 0.0004226443340999477 0.07239751205553945 
-1.8417773332552387 0.11016953338042755 0.1247986146745229 -0.1784179676394123 0.08634536553420323 0.03562432041615944 -0.2087481087998246 0.04099567488096782 -0.7952412459190785 0.16763158922712115 0.266630435295116 -1.1767629648555906 0.1926916086676274 -0.14265769887304333 0.21748666320788707 0.03854378202645521 0.0975768146624779 -0.020359040197593985 -0.08253760046077331 0.01869110683379871 -0.9433276234487145 0.24122503987480517 0.03598333144668324 0.15386003601528014 0.21538583426029762 -0.04385707916341313 0.041327887839920356 -0.04249058960649299 0.21228884597664838 0.025630256867001093 0.14144509385779577 0.19594526350726651 0.05839362312574487 -0.0879386183720765 0.000563210319535936 -0.23263470021849558 0.08242829122033671 0.02824604151063774 0.14610672501834673 -0.4950044086383059 -0.9771535827570961 0.03409113572315254 0.2224938788651485 -0.007428929395463882 0.2777102141236622 0.1546536781167296 0.06959527347218471 0.085596033567028 0.2374999400750624 0.09341571721274235 -0.14616633470292517 -0.23913121321120917 -0.054382553618989825 -0.1387903293734106 0.13726763523176447 0.18029142144965124 -0.3589618354333923 -0.12644673525240452 0.08023473962577106 0.01614790448553743 0.1649247565780141 -0.12633092790162936 0.09703309146606731 0.14201331480080978 0.049715182708574834 0.05759402079033561 0.13617170307046597 0.09597241323807201 -0.33126824823575024 0.1742916111079879 -0.08761368804220424 0.03041357500674077 0.07047044011428169 0.11318633028566587 -0.0816642459342538 0.09900816827555063 -0.31993223502045526 0.09899312728637362 -0.10944337733181769 0.23340061887336447 -0.21843164381788516 0.06016200210250641 -0.19482923993431314 0.13184815332975297 -0.22019089991258609 -0.2863756219855393 -0.30573055889729367 -0.062263290277200754 0.06198393387178565 0.010016162660460947 0.003946211386498185 
-1.0149398526000522 -0.14231407110905683 -0.00559630496368076 -0.42044061433698493 0.028526586357062046 -0.14968373249719585 0.01586686901483153 -0.1086078768544015 -0.5372074102765553 -0.09104541521943456 0.07848336243266588 -0.6286965025162949 0.009003538860789848 -0.06571965621312016 -0.07216263492715305 0.11652617853254583 0.011733253196406425 0.01855490762253439 -0.3133303852659286 -0.050024122053174365 -0.687692102323739 -0.029064856091410015 -0.10137492243361748 -0.14375849628741116 0.12696159819192107 0.18564872845179067 -0.10767654006639267 -0.18761037068555492 0.0031413664838460123 0.09029109243452267 0.016736387813756585 -0.14958707219638326 0.1727623599362794 -0.45445315131167063 0.06259038205009865 0.10837141485347866 0.07273311445213043 0.10826604141604884 -0.07712053091405961 -0.08227178403329875 -0.5894418694711009 -0.21685742078324283 0.07489988044515376 0.1029470943294738 0.027285300501863195 -0.05529165905814859 -0.12495444993714735 0.015319306176150412 0.007038528448445629 -0.09845649246976201 -0.10460318759522744 -0.0927839223979449 0.019070527601577826 -0.2591556361209392 0.19080953911046672 -0.1266802137565732 0.3182658332218282 0.09282333063180365 -0.2033384859683892 -0.2776099000657747 0.004757365087442039 0.0355462543904927 0.10818964381919305 0.012157286705274589 0.08495556290597797 -0.12801721851409573 -0.0932364060381807 0.06383708703006469 -0.0680273859128317 0.10540582077248466 -0.13458473772685045 -0.18717761892981274 0.021157491057746013 -0.16563850489187817 -0.039638225365505174 0.05429128331433797 -0.22414983149938347 -0.020095069206906423 -0.04487153998387015 -0.05379713928769842 -0.09656366544249742 -0.09048894731556875 -0.3806479581600193 -0.1037432701430989 -0.20645734402806157 -0.14792571396531662 -0.3198641942738245 -0.07364031530552764 0.15783185686035717 -0.22116039978065233 -0.09495163302551016 
-1.994677598749632 -0.1929022517221943 1.5440365948751442 -4.977752630721856 0.1342619963119534 -1.3836361956000336 5.065586492996424 -1.7904919864827837 -0.5602695391155958 -0.3556331248147721 -0.6421467345956222 3.479110196273149 -0.5277685312403215 -0.4076345896846231 -0.9709824082246352 -0.17505722663648265 -0.4156584370002454 -0.27712073401573734 -4.0210541530844095 -2.4186729848249273 4.417616189613119 0.12742167159249643 0.14555834923182612 -0.07569676625425031 -0.16283262616023034 -2.8538183853037475 -0.7244327103891499 -0.9316366230455153 0.634946407729962 -0.5073569631630163 0.2679329500554539 -0.9497813215950571 -2.704847710288392 -2.291828004437186 -0.9346408509454013 -3.664108567559219 1.1487026730357095 -0.22414475965543437 -0.23815255986899375 -5.386602506756175 0.1597895134233506 -1.2438566118135554 -0.3885495188844151 -2.0848428639302523 -0.49145131524269825 -0.5710555196081378 -0.4276351074028328 -0.2352030160232436 -0.6128337565025189 -0.9790408559538314 -0.9499092365330415 -1.4103147707438792 -0.35383409577737124 -4.052855636844765 -0.5617382117937392 0.27357858805585966 -2.0243529479336053 -0.12038954980916926 2.6577692582222308 2.033540444921692 -0.6169447482630663 -1.0842984638915178 2.055229308900032 -0.3456363681459937 -0.6214815917593913 1.0747927623387123 0.25643274724154197 -0.1425549573038377 -3.1033732636655578 -0.12325964285517396 -1.0652995362030382 -1.853404416432758 -0.24341185239850224 -0.5188192365120942 -2.2604358917067935 -1.5084290679945276 3.776297625770962 -0.4341997440211724 -2.90236816838923 0.15031090502252137 -4.365582057070011 -0.6435695747745369 -1.6437686973229932 -1.3268710465883184 -3.6911961986850095 -6.090844986729101 -3.9399137542442375 -2.920874621035413 -2.9264632489725426 -1.3531810487882292 -0.3526773714121429 
-1.6215594675124347 -0.0018256711545919877 0.08924731960729264 -0.5227473400603408 0.07599383779868946 0.11987688087079584 -0.1786670801746552 0.30575616954396634 -1.1259543098065792 0.08838761871346056 -0.02274198875855801 -0.9896177994910429 0.03176780486297578 0.25644584626795563 0.20587361994055214 0.15982020531753632 -0.1554758380497855 0.11949206195206989 0.221289843082743 -0.1161251966328946 -1.6291022236366839 0.12364078712113533 -0.22153553311703025 -0.05604070869227689 0.04180745428252163 0.2450892558233819 0.16216263826353036 -0.17544450794816444 -0.1583439800589587 0.00673481216764667 0.14014209958033974 0.3288735997557088 0.5335853189770836 -0.5487950947254502 0.03536690013112112 0.08542536808312384 -0.10871447093938465 -0.01226122817132426 0.006603820403405649 0.12279476836698265 -0.8266298310579142 0.018119305911971265 0.03827503430588647 0.5797906385497207 -0.10895043164168071 0.2544291564904172 0.1546253471932918 0.14050974968206512 0.10870613809019444 0.19440697568164475 -0.2833957747171405 -0.29849521343214486 -0.01631436246645777 -0.49506365078828846 0.17271223517153966 0.0887922362406581 0.15760818816082775 0.040627832383282804 0.10866320869678456 -0.12634642055006198 -0.13227879500088907 -0.06609063317748369 0.18400001079431366 0.1877245750516995 -0.07757092298578197 -0.04061380032067476 -0.09564489393720395 0.11651052984523727 0.20398166798398792 0.1397770283169583 -0.20393770328099786 -0.5027900595410496 0.02284699638493896 0.08178242295059873 -0.050298621076962806 0.5275835304856412 -0.282889421743488 0.22327184852934961 0.24934058475336085 0.06925359229504713 0.03267790442839765 0.15338587369437526 -0.3447146504324447 0.17051458961796834 -0.17922218410598678 -0.3483907900937698 -0.30635721738465493 0.21743475162295228 0.09701895152454791 -0.12016209639518713 -0.10344857681760086 
-1.3191853955111459 -0.024578252663978825 -0.14890502849350007 -0.6184689857672548 -0.09210068419599769 0.2725733989597049 -0.053207052708571914 0.10358885074017868 -1.1814584675871471 -0.06909586264877839 -0.14791040058089566 -0.7605631648712678 0.045673759351692045 0.17620757792908912 0.1595806847308851 -0.12032244447268411 0.006174802578197747 0.010999795961537722 0.22781612833511417 -0.548332169776313 -2.0531107667705313 -0.11945424543844384 -0.058789912214502006 -0.14811782042789443 0.08943330596323132 0.014989739376376023 0.02531296828470304 0.021504715604418058 -0.07579241541516231 0.13709496370438823 0.060349301236089926 0.3421410683461943 1.0503586844717843 -0.7801487519998945 0.11737105186487962 0.23581587957495742 -0.18711125451837893 0.21620679732733197 0.16081737716480718 0.46933209902013673 -0.9476825644640696 -0.09057840303538109 0.20098629499571294 0.908306005593339 0.15011877380931585 0.17862765694682395 0.0699547750686353 -0.058181641880719115 0.09365676360091758 0.12107762176047636 0.010630003040516447 -0.2279230972102867 0.04270301217742967 -0.4070572653306905 0.2360538093073143 0.10859452476883165 0.7491963287083447 0.00937663560584889 -0.35467647076669906 -0.3902111740988812 -0.10132806796868496 0.18803257029955078 -0.19861392249063142 0.05861420419035083 -0.1093185756643026 0.20674306765596345 0.04244778244258386 0.05066332967625993 0.370301267331834 0.12344961331801645 -0.05228416267330659 -0.664421553331674 0.19031316844560417 -0.17888102776579803 0.04908909841148656 0.5267035943370307 -0.3403351167979547 0.01446764641121714 0.21983056573423415 -0.0643894548419172 0.15360998558478892 0.014676448801975148 -0.35703662756663135 -0.1283559566343175 -0.19693606975464883 -0.4340645674355333 -0.19736959257493594 0.3148506844750576 0.5001334603177034 0.10120020822840686 0.0188976773097205 
-0.6093381713702803 0.06072929055339388 -0.17762478752585864 -0.7390252435005724 0.12016833903704352 -0.09072042516050977 -0.029934702636543818 -0.11828709429814357 -0.7166127386797971 0.05033474888674748 -0.008823112338463023 -0.38768166837383256 -0.05695517967637068 -0.06504721888555125 -0.07823039203093671 -0.0015533113525942372 0.007395698388447203 0.14082873325762402 -0.33302614368265226 -0.1769987595408438 -0.24184195350144996 -0.12844606295050315 -0.11072114907292187 -0.14957654374475493 0.027052304768967545 0.2957798800436345 0.1277845552606714 -0.1265447761394653 -0.10562903295700775 -0.08131755794448374 0.13431729536439865 0.07284124645704947 0.07400972428422477 -0.425944825909444 -0.011570098238468577 -0.17862313531423352 -0.21198683479532196 0.10413374179658191 -0.10030308691273362 -0.10900353810604349 -0.1562051860270323 -0.18428339910828698 0.016192673142746014 -0.22530468294925537 -0.14815645929882632 0.15023822593490874 -0.0014938420013453425 0.11994030254558999 0.012477037086477983 -0.033351080134826676 -0.1422974222548544 -0.22868038816076094 -0.08706969540924456 -0.40256296835015576 0.19321840458631453 0.16230661584490935 0.34083551078055097 -0.1409267312414534 -0.08214657055306791 -0.04457498934055115 -0.14754976754010607 -0.10873936664152271 -0.010474062291532447 0.08777604829039869 -0.14946423489979369 0.2006430165175205 0.2302053432708966 -0.005562331319674405 -0.0765094129064932 0.017123803249961857 -0.038952124759552946 -0.07354206882283344 0.12473899878374428 0.02261449439949065 -0.046427568735560004 -0.04700555810394043 -0.1604013285562075 -0.03699805041971611 -0.20823206139754494 -0.05672684209850735 -0.17777195730075235 0.0517009131972524 -0.6545610266490011 -0.28226406979867286 -0.3232583464086035 -0.5825457399010088 -0.037118865314649765 -0.21451502041345166 -0.007675773340486897 -0.1430520397141031 -0.11590923697327896 
-1.8953611347253043 -0.4296500144696873 -0.12597573685939362 4.890923471610547 -0.17403146304018866 -2.079672142748095 -6.198583420796612 -2.02747662731255 2.890441019542551 -0.5216361683909372 -0.12300975642549133 -1.0352477991334565 -0.5212535455823244 -1.7727962954160752 -0.7068741193968838 -0.3938689648861345 0.4073644693137555 -1.9815731119000541 -2.2267845297563493 -3.808587701236831 10.849569974173257 -0.33781595089401845 0.1403356934035109 0.37223978214758974 -0.6062395263854465 -9.019076043889292 -0.9941808811246491 0.30503509895058895 0.37281469959530805 -0.29205876415801985 -0.8732731814200132 -1.2531059566446459 -1.8741979053917435 0.06661434746939758 -0.2821275023231099 -1.6387044812342326 -0.9404036050879767 -0.2727835185312709 -0.36924416635414553 -7.000998836967111 5.5749087428836805 0.2707971865836309 -0.4920979902509616 -1.7669572374524243 -0.46991807854308637 -0.9770526412236371 -0.6789849362306163 -0.424575166546787 -0.3971269177498303 -0.7184363964209021 -0.4277622927409543 0.72149132316628 -0.559199301652312 3.6477050885876694 -2.128655979747038 -0.4990654832867757 -4.177175798189941 -0.45731395516307394 -0.7347468210736409 -0.6841725524595702 -0.20326746033432697 -2.4569341860821123 -0.44305092583518657 -0.371086761270457 -0.4261678090147456 -1.1436452687843974 -0.774637885469076 -0.3187151369352971 -1.6709648052758685 -0.20431645705763662 0.45872933350566153 0.45962540648159533 -0.4818724445348935 0.08633687735501018 0.1251873476131942 -1.3759198549234422 -6.647503257610932 -2.439530840788216 -0.882962847998931 -0.09767180705626896 -2.1220617077845607 -0.6588353335878473 1.6302252593902715 -5.0618574108706 -0.19748854046715628 4.455183823456849 1.4671280955415025 -1.6368618459057953 -2.172857303991695 -0.23050402940030232 -0.44277556251539635 
-1.483060362204096 0.00264840773158206 -0.052439800657248424 -0.17459281258997283 0.16403979563791232 0.019697170187967756 -0.16661242941544857 0.1014346443392853 -0.7410844725023427 -0.041163852253925375 -0.13762613907078702 -0.7725742090949995 -0.06581548826794338 0.03567626542000569 0.07071616280037189 0.17167862770317918 -0.12850572666782462 -0.037786445682340714 0.2539954512996477 0.15664640564576518 -1.0220720845606144 0.12091446984304552 -0.1774795810818981 0.08985023352141742 0.13826016265992627 -0.16524706416474455 0.0036031362077424494 0.010997671020050002 0.008616560911483651 0.09523289833043133 0.08725319622677577 0.009528160453532117 0.3657248213007498 -0.261233027071595 -0.06655328941295657 0.12914009436405993 -0.0009738925621305427 0.02087743139065652 -0.06507202543671349 -0.10223223035012106 -0.7677289219989397 -0.07810295807662657 0.04440780025429255 0.12635465914451008 -0.10962945244124603 -0.05859355907338353 0.13295821478623396 -0.06340555909428826 -0.002273662911223814 -0.11037075540066615 -0.18536631973539572 -0.0031996588257790365 -0.08753313538904077 -0.09856332032278363 0.020057995973316617 -0.05001155221329662 0.24211236177118856 -0.048392177498315696 -0.15649765158728168 -0.12752954671427202 -0.19883340829291246 0.15263176519913335 0.0944689394051181 -0.10357855508786641 0.04763166393690838 0.12559359817023888 -0.014729030395895435 0.07428975565101956 0.08607827975392934 -0.03042490767773437 -0.14467755331145074 -0.189410820818115 -0.001183577343092748 0.11345577902520723 0.016697542957014935 0.32221567062540224 -0.0816084986111703 -0.012963845192987886 0.07451485873588941 0.050555456814902554 0.07522906721605872 -0.0020551575867222595 -0.22663669963814395 0.1042025332933848 -0.24132055289904009 -0.19218312967527873 -0.15881806506743318 0.028047475276244693 0.08558225468223389 -0.1156805996738055 -0.13018714637729278 
-1.6403402609438507 0.23281125037769634 0.3916274874137391 -0.23383432317958247 0.08472289134101084 0.09667980805841049 -0.30744352122961466 -0.20192948472325936 -0.6025026770841331 0.023389495243201188 0.14321989724055872 -1.4366940160343815 0.19881613664494244 -0.026653748353043363 0.02012318716538182 0.10377274361877713 0.20061473553020093 0.04784573379488855 -0.24870136594670572 -0.048655116740891347 -0.7173429785505527 0.27866788232857503 0.2643765498453964 0.10716155255936169 0.1495883052014158 0.24851531501979074 -0.12065796344172461 -0.14896030206315303 0.3449170911303583 0.24241724209266924 0.2334059882012215 0.1942981321239484 -0.106627333977652 -0.24028978890280023 0.08977616434789325 -0.14983792531648923 -0.008768456568391446 0.04614767518372565 -0.01744383260158014 -0.3555775260089303 -1.3461711049878444 0.04210113697502158 0.2905869551241889 -0.2786799228050151 0.23132976091896243 0.13237631398420766 0.09372904872406992 0.26157359317264384 0.3011084634152517 0.07702434711421356 -0.09878025616713905 -0.18877434716045594 0.08944157740177079 -0.10557324465682907 0.01664493186552564 0.2439124322166665 -0.22236031173026488 -0.1311292319300869 0.31486796112324195 0.09949662522802444 0.06305254850115963 -0.13376438509366795 0.3139064758329335 0.20168690486658786 -0.12588561570127316 0.09453185899989539 0.24476599064572369 0.14471103990365597 -0.4233191828048167 0.22935185635931588 -0.07680756576120142 -0.06600814919709065 0.0824121365646747 0.16455446920018693 -0.011591250906307242 -0.043665823195351415 -0.22454808077753624 -0.03810070956431747 -0.17102137023402364 0.07255739747746638 -0.32277815228016127 0.18238910057453042 -0.2993758698165845 -0.028080512799726273 -0.27149666035360515 -0.41486022726400235 -0.36524631454154516 -0.05448723229483394 -0.1947430593929304 0.1687796222547012 0.13522686190533897 
-6.421292237640917 -0.5786561078230905 -0.07050737847676694 -0.05850482526466213 -0.5416518484211231 -0.1791553698694329 -1.8917588145924802 0.18591469318001536 -3.155430271276936 -0.5083378796857768 -0.6432601548374598 -7.944308982162299 -0.47582870826992946 -0.3495585773512964 -0.2299908245264835 -0.3723212631831254 -1.0842615787560625 0.7747245277559176 3.9537317714085845 0.24963537441904932 -1.823635470133663 -0.6488725002487759 0.07119834458292738 -1.0290849692472421 -0.4349912201822229 0.2598612742687713 -0.7422330180260764 -0.011122592763339803 -0.5914923963211303 -0.39751988839383257 -0.22541666745073843 -0.35925302214674903 0.41798919103725257 4.6520498535759875 -0.060893283152980496 0.9494422418539807 1.1727591617844446 -0.4685643817446634 -0.7758218343888179 -0.46203112357656373 -4.876255364194406 -0.81017969070898 -0.363331623999952 1.0175127038056533 -0.4527529686643925 -0.3504260898737114 -0.5812216537032764 -0.19697642601431126 -0.3830648802103045 -0.0701278840643191 0.06293062984041277 0.0955212312454321 -0.14146980827864414 -0.03192312588828167 0.48362486780453035 -1.0605517021439903 0.45075562244154055 -0.07185609089054085 2.0054691159203113 2.4895537105929937 -0.15933710283142746 0.7480313571542397 0.5490185150288058 -0.2975276085736167 1.040710976010566 -1.1690635782757024 -0.9254294651875611 -0.4905579008538302 1.8961813514748769 -0.40718428583408056 1.8266804714446665 3.7794546145415464 -0.8331103924157768 -0.8529377809777485 1.2978603424184751 2.7872795842168987 -2.155677747119748 1.21839249211497 1.3263670367209752 -0.8539336001053125 1.3246748289536334 -0.06668648825335438 -1.3566840492141958 3.922975405701939 2.2763211721000496 1.1828368309607 1.0483682663756768 0.5716661178586387 1.0307644554577435 -0.47919593925762394 -0.3655588257636912 
-0.5223486564885048 -0.11602906066697358 0.07398901077861977 -0.9470663597605252 -0.04766008814329586 -0.03674155669529972 -0.2545015973242021 -0.08315275137454026 -0.680929595180963 -0.09566719939934962 -0.04191846483531394 -0.027452615077909488 -0.02901802180723406 -0.029974306724258704 -0.010616676738708686 0.03804688565457568 -0.026981516242573507 -0.03278697837359885 -1.0429140440302613 -0.22971826206909868 -0.5116839778588942 0.1639909007984562 -0.15009016897937105 0.05770067988118996 -0.015356347838704406 -0.014746052545932899 -0.009586098355075394 0.044001798729073976 -0.0017586004886431259 0.019410187987461733 0.11007733949614504 0.11937607423042496 -0.0035761661293671277 -0.31106715441048133 -0.12716164191340798 -0.44655192093960394 0.0059506957107861675 0.15421138676944288 0.030437066804731593 -0.3724240721583747 0.07309886965510087 -0.1189061301950886 -0.022310045411844132 -0.12089746660818959 0.12449999460900352 0.019510932556506107 0.19217079550950153 0.12198613371343174 0.00564196835867715 0.019817629333684465 -0.14039926887424867 -0.13063605205332418 -0.1403359778715346 -0.5890343622221695 0.05478460449090761 0.17456777145955596 0.14330054139536424 0.07354438848368389 0.010006575420954934 0.06370673236009554 -0.11865726548243367 0.029541022684495193 0.015298062335283167 -0.11340014566681941 -0.13205561002997956 0.15950425509059069 0.3035247537269103 0.07819164667426477 -0.35704407009587186 0.003521808538242703 0.02209708493774719 -0.22016814530001363 0.09708617289832461 -0.10042816796055626 0.016528263573123137 0.07014417903602267 -0.14468080157526106 0.11370149650940076 -0.1265923750421057 0.15530351292916253 -0.6415526492897891 0.03319272919084658 -1.32456794196615 -0.5588027753770032 -0.5613161619729065 -0.4459437195458502 0.12125829184036908 -0.26144319175028247 -0.039454208943150576 -0.1314791129732371 0.11734652144108793 
0.28811920887306425 -0.2605964370027493 -0.869383694543963 -2.5666797482081583 -0.21991672233759788 -0.2603361990385689 -1.3963701784035196 0.0002717114999435834 -1.6589473736085731 -0.2731555262687828 -0.35704698991189826 1.1622037793292208 -0.2833155059516835 -0.36515984041704863 -0.41780847296819107 -0.2604670516003943 -0.49954643604816534 -0.20442557069524092 -2.5881613270767754 -0.7322030266476263 0.8570890270362309 -0.5361073768211018 -0.767898685244747 -0.34746628101163124 -0.3786522142030841 -0.07761496599010491 -0.5778563801380405 -0.37761054098201696 -0.7492720577626256 -0.2531925660437385 -0.37608295920286805 -0.3748577496227697 -0.13744639636161826 -0.4493424443575916 -0.17939344938384033 0.16160305653299567 -0.9672851494270602 -0.2942265864163086 -0.5210035296028644 -1.1870372177108541 2.6278961670710714 -0.8060318232919518 -0.3390478344388597 -0.794464520738557 -0.2899373257798826 -0.1336504549597255 -0.6173129939694927 -0.3613533679066863 -0.19543934409011948 -0.18228729161199864 -0.5517238913952883 -0.4864493682903233 -0.23059001331851386 -1.836125679576606 -0.08197829373211685 -0.770134514247943 0.7343457849835272 -0.5056812796864079 -1.0502833143936186 -0.8074356763269914 -0.6006205538638514 -0.16505065743640193 -1.0532930010702588 -0.3610578867513282 -0.19350038295184435 -1.3965121118721535 -1.0851352416458233 -0.25483253301509656 0.03238073113769224 -0.08167026913605739 -0.4021977807211209 -0.41059253686168395 -0.5819640446535279 -0.23185632476551538 -0.44859309678220655 -0.12218160083227358 -1.5731725864226358 -0.49968424103753056 -0.1967161098702859 -0.4977883237979129 -0.2379789059553367 -0.04784227337289634 -3.9195877873558924 -1.656833392904534 -0.23910314061816573 0.16987293653560684 0.2300508069949243 -0.33024354048603943 0.33097556949530343 -1.0198599383684837 -0.1573125876636934 
-1.7710647956441654 0.08270508173846244 -0.23012641347530502 -0.640364196429013 -0.09851087226783618 0.3268887810818177 0.5334677676039667 0.3518371680874036 -1.0593468277708038 -0.026861661547400887 -0.18387516327820802 -2.158121765200616 -0.19121809508743642 0.4215875591097158 -0.1808883819568318 -0.07697573467258725 -0.1785698443890106 0.6625829032640146 0.2151810479763271 0.34680901971331707 -1.0456420935762603 -0.05932826591409575 -0.3448499720189561 -0.09456629293839988 0.060175595134038765 0.9691608690262046 0.02687655712627091 -0.4377357607083144 -0.20495127690692538 0.04929824259932897 0.11905104663901046 0.25669765946473205 0.1303554851678298 -0.6655409834857207 -0.19962372068300538 0.03445044077257822 -0.008775785554675695 0.04239595434368027 -0.061432744486897436 -0.19671279340417852 -1.8335983328491428 -0.5622375908820473 0.1371276017088232 0.37193263288072353 -0.18236840950202307 0.2277912483673255 0.06986370919881406 -0.06174845093200936 0.0610015127123741 -0.10879639079791885 -0.2937065202940729 -0.4130974654647629 0.0022536846149444484 -0.7664346751826878 0.5970797751001302 0.036884541451408154 -0.16439701129097686 -0.11106879925445791 -0.11431209854403282 -0.4848502124210513 -0.276462183420329 0.22080372185845287 0.09401258421215115 -0.1802165548143005 -0.10047460383617676 -0.23888592380496834 -0.08897147928350331 -0.16401822527718782 0.09143276215010195 -0.003908728993783839 -0.6482642223260122 -0.5389384935425444 0.1278442847389475 -0.09944683918724152 -0.4453883443665794 0.34342282326636425 0.6322764403329747 0.7567133804171987 0.08149803850672538 -0.13270226274221145 0.009866436887788651 -0.10934834547080849 -0.5840434218842555 0.5494390293192809 -0.5151997682090194 -1.096629739089623 -0.8905679978925409 0.20444190559888148 -0.028162700926113234 -0.5181821653816793 0.01576048958208692 
-0.8115444167703765 0.07566833231191998 0.24688044342047613 -0.9744370186741134 0.19124706463791702 -0.012454460172769617 0.12938764258748997 -0.1289663318506923 -0.8731012304480255 0.07694282124987835 0.009570135129555336 -0.16386909201066172 0.001683116177121132 -0.09834207752567586 0.012106565900185691 0.15107751442634965 0.1658981744305722 -0.05824858271402067 -0.5865290510531068 0.05008932444249947 -1.2272574566198646 0.09687250839061332 -0.0027027287257677876 0.07641818508311729 0.17169264838677567 -0.10498921725254635 0.21096723948126883 0.048218802157505694 0.12898266310309994 0.19835506737247902 -0.02652198646588968 -0.02428850076862836 0.1787666641139357 -0.247611508856922 0.06357941171735956 -0.14926776677835724 -0.2431589156931326 0.03400505918954776 0.19349428102204225 -0.05912282117070473 -0.02232828230408287 -0.0723620656056029 -0.00942936287206042 0.28383897954848153 0.1149818373044568 0.07293801770312101 0.17482008968733537 0.13533196284712373 0.17466016034428022 0.027609729094222712 0.005005109612478629 -0.07288979041301619 0.13432735676122137 -0.6047533430108722 0.11010586178019076 0.4017944165073302 0.15566510360176863 -0.0293064384708382 0.1283381615104556 -0.11793588157139989 9.330615654613203e-05 -0.05988123861686757 -0.027910672875064633 -0.006882062385083978 -0.17939295092637758 0.3124335375429955 0.4446969354177783 0.2233326791718183 -0.16821173366147676 0.1323172541389315 -0.005375616501175164 -0.050971526902734605 -0.0628391669074074 0.023113496559992664 0.10798546861365643 0.0794915115363363 -0.2552136837019315 0.01835654373369022 0.01722985392349118 0.19518015221954435 -0.49080395591159004 0.0490764717276492 -0.9944487045515411 -0.2895397137381041 -0.3982218473170113 -0.4185167915604084 0.2044955919721745 -0.13096938635244484 -0.206900128695097 0.2793230662654076 0.1614165021249877 
-1.0841660185846906 -0.018331800496125993 -0.004982299295444871 -0.5361023914275046 -0.08281042430080932 -0.0885566626462803 -0.04989805559113742 -0.11387825088856607 -0.546610642473533 -0.1857732410159768 0.0956138888900228 -0.2519339791488133 -0.1356676909411926 -0.17776667864839474 -0.05788729721842567 -0.1309252909069618 -0.13435427553854085 0.03136289163630935 -0.05299810048812641 -0.22759960540799376 -0.3367266206222635 0.006078712342018341 -0.1932255522391701 -0.18945198544791855 -0.00244485721799305 -0.4435305656660078 -0.12687768579490696 -0.1455191453642972 -0.14386380716657127 -0.14177750564885133 -0.13558181362778493 0.04347371776124615 -0.017359779344743902 -0.03327088335720078 -0.02994780481665872 -0.15138186643338458 -0.17297777836899603 -0.010182090342574626 -0.06569285356073255 -0.15875173147375274 -0.1746959053389049 -0.18058893184920044 0.05849436850783698 -0.23650457133798136 -0.029343076786119932 -0.180619169279602 -0.06803126507812211 0.01837492279664577 -0.12411011047148274 -0.05747705674309457 -0.09918345811681203 0.0296245057815815 -0.07179190081061443 -0.4319833196989052 -0.1527930409785149 -0.05342945780837875 0.09374020732853912 -0.14106534233023174 -0.04003743637155544 -0.24627126476845126 -0.20016680044676724 -0.06170694929119573 -0.19511602144492965 0.029789342893318117 -0.08003525747416476 -0.06339378054386398 0.1099607613508924 0.04180908311452082 -0.30735226824839357 0.04524088943060834 -0.22822506164473677 0.00782906076826347 -0.1596067120631757 -0.006390473261944121 -0.218486126221837 0.05470708199088813 -0.2250923558673943 -0.04204767431531301 -0.20906795672017794 -0.05462534046578072 -0.1034550867903638 0.07551775056366244 -0.3943400048553457 -0.16579598225689535 -0.03811207207323508 -0.24481214323294068 -0.1445061405284984 -0.26179548800319574 -0.06882868211884989 0.09105050569144124 0.03060542053321404 
2.12722762070462 -0.32816687154450586 -1.3160894949530284 -4.179674859459611 -0.36994289165695443 -0.2087100749850471 -1.8760750196520504 0.03163107013036236 -0.8680521451933128 -0.4997318290562652 -0.6462827931758998 2.7066549356093885 -0.47813235138671184 -0.5636898992840855 -0.5862150108992893 -0.2622448069943657 -0.5829433330063057 0.38158593369685095 -6.835286697406965 1.5161458727379755 3.2529416530308315 -1.2963735777477612 -1.4052043701542571 -0.5528248254589347 -0.3746601582915174 -0.5888220360436278 -2.1191377033138563 -0.5914184524233124 -1.0055582648465577 -0.30465900236669224 -0.6665393783098278 -0.7305100940145186 -1.1922570859839687 -1.1246951983387024 -0.3891874236324551 -0.8036708174346822 -1.6145701914168746 -0.2911665854601165 -1.2496970760524613 -4.105638839477014 5.954088169237304 -2.2315764932467976 -0.28643565661759124 -0.8585204213284207 -0.3857016658589176 -0.5386654231680094 -1.2304228066104927 -0.32944355460733715 -0.39277826485031275 -0.3534821213889259 -0.9187914273763487 -0.25389978364020876 -0.5434563769057168 -2.403038724898842 -0.020955528348768005 -2.633543386944001 -3.0269186053571895 -0.9974838542973175 -1.6413688588523387 -1.5967952101617333 -0.8986673069196781 -1.510584542308907 -1.647316425771124 -0.27912647005401503 -0.8996511018240817 -4.392328757398875 -3.36999093092969 -0.20471279867917241 0.9485329225599304 -0.08169615056642007 -1.2696583445438128 -1.1644889458620646 -0.8224065803065332 -0.5702752851982912 -0.1937485533164453 0.2378159659499554 0.6327252369370641 0.48251001900116663 -0.7317241221418908 -0.911172459770624 -1.046879095669256 -0.20630870157011358 -4.437363339119565 1.9728396703524618 -1.4750346807500265 3.470536053685203 2.171194248757663 -0.08874265551495288 -0.7814348667737685 -2.4770264996649924 -0.46630503020398706 
-1.766521874877635 0.780169702152294 1.515867541179358 0.4716612262667221 0.6173001553843374 0.752711643006031 -1.6965721877745337 0.7499041493998969 0.26435818043958126 0.8268137966573943 1.1980953320066605 -5.996626534213083 1.0291088041060008 0.9550732753186171 1.4757752510956643 0.7366162355765481 1.1258320810470102 0.5877902628874383 5.022251065101179 -1.6852637160849133 -0.01807215260407209 1.6005953956057402 1.6024212614339866 0.8869343057420799 0.733828694523325 -2.195315296836329 1.6196868077503659 0.8200959239819117 1.3831446752575056 0.784025645346717 1.1404141668555388 1.2899292550403885 0.9356839512140788 -0.9064503211579161 0.8576024299568238 4.289547205023972 1.84272086922072 0.6087373691744302 1.139671571516387 -0.06665358061588224 -8.284235266683673 1.599216060028887 0.6431615936362393 0.030328302395425638 1.0136231291860356 1.0159879084125114 1.6144312087482797 0.6775887052533678 0.7253129458459151 0.8929699169748799 1.1256843732775652 0.42570276411451746 0.6899135528412281 0.7524841830312196 1.1942639117677505 2.0455629306582503 0.39934802784526136 1.0489692985770926 2.185499357963569 2.0125779248486135 1.2665343655013057 2.188604697012478 1.7301911039793845 0.8604469947809165 1.5071915513759833 3.3268373427883344 2.4037126763864713 0.6872718805633753 0.5569731267395215 0.5146592881239495 1.6442187758054028 -0.2842001701290294 1.155928728362676 1.23580768495183 0.7341558913230521 1.1826399772765508 -2.8290644431963705 0.4406195035755308 2.18689626102021 1.2553357695826295 4.178593184784733 0.5209413824662851 -0.5671951541090119 -6.323951792485752 3.7752383843085537 -2.9535414338621755 -0.40119545178353516 1.1025774308124763 2.9187520588833555 2.0947430966587546 0.6171743318540096 
